digraph Tree {
node [shape=box] ;
0 [label="X[0] <= 60.5\ngini = 0.204\nsamples = 4521\nvalue = [4000, 521]\nclass = Yes"] ;
1 [label="X[0] <= 29.5\ngini = 0.192\nsamples = 4394\nvalue = [3921, 473]\nclass = Yes"] ;
0 -> 1 [labeldistance=2.5, labelangle=45, headlabel="True"] ;
2 [label="X[1] <= 2.5\ngini = 0.26\nsamples = 482\nvalue = [408, 74]\nclass = Yes"] ;
1 -> 2 ;
3 [label="X[0] <= 28.5\ngini = 0.191\nsamples = 168\nvalue = [150, 18]\nclass = Yes"] ;
2 -> 3 ;
4 [label="X[1] <= 0.5\ngini = 0.171\nsamples = 138\nvalue = [125, 13]\nclass = Yes"] ;
3 -> 4 ;
5 [label="X[0] <= 24.5\ngini = 0.201\nsamples = 53\nvalue = [47, 6]\nclass = Yes"] ;
4 -> 5 ;
6 [label="gini = 0.0\nsamples = 5\nvalue = [5, 0]\nclass = Yes"] ;
5 -> 6 ;
7 [label="X[0] <= 27.5\ngini = 0.219\nsamples = 48\nvalue = [42, 6]\nclass = Yes"] ;
5 -> 7 ;
8 [label="X[0] <= 26.5\ngini = 0.239\nsamples = 36\nvalue = [31, 5]\nclass = Yes"] ;
7 -> 8 ;
9 [label="X[0] <= 25.5\ngini = 0.18\nsamples = 20\nvalue = [18, 2]\nclass = Yes"] ;
8 -> 9 ;
10 [label="gini = 0.245\nsamples = 7\nvalue = [6, 1]\nclass = Yes"] ;
9 -> 10 ;
11 [label="gini = 0.142\nsamples = 13\nvalue = [12, 1]\nclass = Yes"] ;
9 -> 11 ;
12 [label="gini = 0.305\nsamples = 16\nvalue = [13, 3]\nclass = Yes"] ;
8 -> 12 ;
13 [label="gini = 0.153\nsamples = 12\nvalue = [11, 1]\nclass = Yes"] ;
7 -> 13 ;
14 [label="X[0] <= 23.5\ngini = 0.151\nsamples = 85\nvalue = [78, 7]\nclass = Yes"] ;
4 -> 14 ;
15 [label="X[1] <= 1.5\ngini = 0.32\nsamples = 5\nvalue = [4, 1]\nclass = Yes"] ;
14 -> 15 ;
16 [label="gini = 0.0\nsamples = 4\nvalue = [4, 0]\nclass = Yes"] ;
15 -> 16 ;
17 [label="gini = 0.0\nsamples = 1\nvalue = [0, 1]\nclass = No"] ;
15 -> 17 ;
18 [label="X[0] <= 27.5\ngini = 0.139\nsamples = 80\nvalue = [74, 6]\nclass = Yes"] ;
14 -> 18 ;
19 [label="X[0] <= 24.5\ngini = 0.109\nsamples = 52\nvalue = [49, 3]\nclass = Yes"] ;
18 -> 19 ;
20 [label="gini = 0.18\nsamples = 10\nvalue = [9, 1]\nclass = Yes"] ;
19 -> 20 ;
21 [label="X[0] <= 25.5\ngini = 0.091\nsamples = 42\nvalue = [40, 2]\nclass = Yes"] ;
19 -> 21 ;
22 [label="gini = 0.0\nsamples = 6\nvalue = [6, 0]\nclass = Yes"] ;
21 -> 22 ;
23 [label="X[1] <= 1.5\ngini = 0.105\nsamples = 36\nvalue = [34, 2]\nclass = Yes"] ;
21 -> 23 ;
24 [label="X[0] <= 26.5\ngini = 0.117\nsamples = 32\nvalue = [30, 2]\nclass = Yes"] ;
23 -> 24 ;
25 [label="gini = 0.124\nsamples = 15\nvalue = [14, 1]\nclass = Yes"] ;
24 -> 25 ;
26 [label="gini = 0.111\nsamples = 17\nvalue = [16, 1]\nclass = Yes"] ;
24 -> 26 ;
27 [label="gini = 0.0\nsamples = 4\nvalue = [4, 0]\nclass = Yes"] ;
23 -> 27 ;
28 [label="X[1] <= 1.5\ngini = 0.191\nsamples = 28\nvalue = [25, 3]\nclass = Yes"] ;
18 -> 28 ;
29 [label="gini = 0.198\nsamples = 27\nvalue = [24, 3]\nclass = Yes"] ;
28 -> 29 ;
30 [label="gini = 0.0\nsamples = 1\nvalue = [1, 0]\nclass = Yes"] ;
28 -> 30 ;
31 [label="X[1] <= 1.5\ngini = 0.278\nsamples = 30\nvalue = [25, 5]\nclass = Yes"] ;
3 -> 31 ;
32 [label="X[1] <= 0.5\ngini = 0.302\nsamples = 27\nvalue = [22, 5]\nclass = Yes"] ;
31 -> 32 ;
33 [label="gini = 0.198\nsamples = 9\nvalue = [8, 1]\nclass = Yes"] ;
32 -> 33 ;
34 [label="gini = 0.346\nsamples = 18\nvalue = [14, 4]\nclass = Yes"] ;
32 -> 34 ;
35 [label="gini = 0.0\nsamples = 3\nvalue = [3, 0]\nclass = Yes"] ;
31 -> 35 ;
36 [label="X[0] <= 25.5\ngini = 0.293\nsamples = 314\nvalue = [258, 56]\nclass = Yes"] ;
2 -> 36 ;
37 [label="X[1] <= 4.5\ngini = 0.381\nsamples = 78\nvalue = [58, 20]\nclass = Yes"] ;
36 -> 37 ;
38 [label="X[0] <= 24.5\ngini = 0.5\nsamples = 6\nvalue = [3, 3]\nclass = Yes"] ;
37 -> 38 ;
39 [label="gini = 0.0\nsamples = 2\nvalue = [2, 0]\nclass = Yes"] ;
38 -> 39 ;
40 [label="gini = 0.375\nsamples = 4\nvalue = [1, 3]\nclass = No"] ;
38 -> 40 ;
41 [label="X[1] <= 7.5\ngini = 0.361\nsamples = 72\nvalue = [55, 17]\nclass = Yes"] ;
37 -> 41 ;
42 [label="X[0] <= 24.5\ngini = 0.111\nsamples = 17\nvalue = [16, 1]\nclass = Yes"] ;
41 -> 42 ;
43 [label="X[0] <= 23.5\ngini = 0.18\nsamples = 10\nvalue = [9, 1]\nclass = Yes"] ;
42 -> 43 ;
44 [label="gini = 0.0\nsamples = 6\nvalue = [6, 0]\nclass = Yes"] ;
43 -> 44 ;
45 [label="X[1] <= 6.0\ngini = 0.375\nsamples = 4\nvalue = [3, 1]\nclass = Yes"] ;
43 -> 45 ;
46 [label="gini = 0.0\nsamples = 1\nvalue = [1, 0]\nclass = Yes"] ;
45 -> 46 ;
47 [label="gini = 0.444\nsamples = 3\nvalue = [2, 1]\nclass = Yes"] ;
45 -> 47 ;
48 [label="gini = 0.0\nsamples = 7\nvalue = [7, 0]\nclass = Yes"] ;
42 -> 48 ;
49 [label="X[0] <= 19.5\ngini = 0.413\nsamples = 55\nvalue = [39, 16]\nclass = Yes"] ;
41 -> 49 ;
50 [label="gini = 0.5\nsamples = 4\nvalue = [2, 2]\nclass = Yes"] ;
49 -> 50 ;
51 [label="X[1] <= 8.5\ngini = 0.398\nsamples = 51\nvalue = [37, 14]\nclass = Yes"] ;
49 -> 51 ;
52 [label="X[0] <= 24.5\ngini = 0.415\nsamples = 34\nvalue = [24, 10]\nclass = Yes"] ;
51 -> 52 ;
53 [label="X[0] <= 22.5\ngini = 0.375\nsamples = 24\nvalue = [18, 6]\nclass = Yes"] ;
52 -> 53 ;
54 [label="X[0] <= 21.5\ngini = 0.444\nsamples = 15\nvalue = [10, 5]\nclass = Yes"] ;
53 -> 54 ;
55 [label="X[0] <= 20.5\ngini = 0.375\nsamples = 8\nvalue = [6, 2]\nclass = Yes"] ;
54 -> 55 ;
56 [label="gini = 0.444\nsamples = 3\nvalue = [2, 1]\nclass = Yes"] ;
55 -> 56 ;
57 [label="gini = 0.32\nsamples = 5\nvalue = [4, 1]\nclass = Yes"] ;
55 -> 57 ;
58 [label="gini = 0.49\nsamples = 7\nvalue = [4, 3]\nclass = Yes"] ;
54 -> 58 ;
59 [label="X[0] <= 23.5\ngini = 0.198\nsamples = 9\nvalue = [8, 1]\nclass = Yes"] ;
53 -> 59 ;
60 [label="gini = 0.0\nsamples = 5\nvalue = [5, 0]\nclass = Yes"] ;
59 -> 60 ;
61 [label="gini = 0.375\nsamples = 4\nvalue = [3, 1]\nclass = Yes"] ;
59 -> 61 ;
62 [label="gini = 0.48\nsamples = 10\nvalue = [6, 4]\nclass = Yes"] ;
52 -> 62 ;
63 [label="X[0] <= 22.5\ngini = 0.36\nsamples = 17\nvalue = [13, 4]\nclass = Yes"] ;
51 -> 63 ;
64 [label="gini = 0.0\nsamples = 1\nvalue = [1, 0]\nclass = Yes"] ;
63 -> 64 ;
65 [label="X[0] <= 24.5\ngini = 0.375\nsamples = 16\nvalue = [12, 4]\nclass = Yes"] ;
63 -> 65 ;
66 [label="X[1] <= 9.5\ngini = 0.444\nsamples = 6\nvalue = [4, 2]\nclass = Yes"] ;
65 -> 66 ;
67 [label="X[0] <= 23.5\ngini = 0.48\nsamples = 5\nvalue = [3, 2]\nclass = Yes"] ;
66 -> 67 ;
68 [label="gini = 0.444\nsamples = 3\nvalue = [2, 1]\nclass = Yes"] ;
67 -> 68 ;
69 [label="gini = 0.5\nsamples = 2\nvalue = [1, 1]\nclass = Yes"] ;
67 -> 69 ;
70 [label="gini = 0.0\nsamples = 1\nvalue = [1, 0]\nclass = Yes"] ;
66 -> 70 ;
71 [label="X[1] <= 9.5\ngini = 0.32\nsamples = 10\nvalue = [8, 2]\nclass = Yes"] ;
65 -> 71 ;
72 [label="gini = 0.245\nsamples = 7\nvalue = [6, 1]\nclass = Yes"] ;
71 -> 72 ;
73 [label="gini = 0.444\nsamples = 3\nvalue = [2, 1]\nclass = Yes"] ;
71 -> 73 ;
74 [label="X[1] <= 8.5\ngini = 0.259\nsamples = 236\nvalue = [200, 36]\nclass = Yes"] ;
36 -> 74 ;
75 [label="X[0] <= 26.5\ngini = 0.29\nsamples = 165\nvalue = [136, 29]\nclass = Yes"] ;
74 -> 75 ;
76 [label="X[1] <= 7.5\ngini = 0.165\nsamples = 33\nvalue = [30, 3]\nclass = Yes"] ;
75 -> 76 ;
77 [label="X[1] <= 3.5\ngini = 0.133\nsamples = 28\nvalue = [26, 2]\nclass = Yes"] ;
76 -> 77 ;
78 [label="gini = 0.0\nsamples = 2\nvalue = [2, 0]\nclass = Yes"] ;
77 -> 78 ;
79 [label="X[1] <= 6.5\ngini = 0.142\nsamples = 26\nvalue = [24, 2]\nclass = Yes"] ;
77 -> 79 ;
80 [label="X[1] <= 5.0\ngini = 0.124\nsamples = 15\nvalue = [14, 1]\nclass = Yes"] ;
79 -> 80 ;
81 [label="gini = 0.153\nsamples = 12\nvalue = [11, 1]\nclass = Yes"] ;
80 -> 81 ;
82 [label="gini = 0.0\nsamples = 3\nvalue = [3, 0]\nclass = Yes"] ;
80 -> 82 ;
83 [label="gini = 0.165\nsamples = 11\nvalue = [10, 1]\nclass = Yes"] ;
79 -> 83 ;
84 [label="gini = 0.32\nsamples = 5\nvalue = [4, 1]\nclass = Yes"] ;
76 -> 84 ;
85 [label="X[1] <= 7.5\ngini = 0.316\nsamples = 132\nvalue = [106, 26]\nclass = Yes"] ;
75 -> 85 ;
86 [label="X[1] <= 5.0\ngini = 0.295\nsamples = 111\nvalue = [91, 20]\nclass = Yes"] ;
85 -> 86 ;
87 [label="X[0] <= 28.5\ngini = 0.341\nsamples = 55\nvalue = [43, 12]\nclass = Yes"] ;
86 -> 87 ;
88 [label="X[1] <= 3.5\ngini = 0.305\nsamples = 32\nvalue = [26, 6]\nclass = Yes"] ;
87 -> 88 ;
89 [label="gini = 0.0\nsamples = 2\nvalue = [2, 0]\nclass = Yes"] ;
88 -> 89 ;
90 [label="X[0] <= 27.5\ngini = 0.32\nsamples = 30\nvalue = [24, 6]\nclass = Yes"] ;
88 -> 90 ;
91 [label="gini = 0.346\nsamples = 9\nvalue = [7, 2]\nclass = Yes"] ;
90 -> 91 ;
92 [label="gini = 0.308\nsamples = 21\nvalue = [17, 4]\nclass = Yes"] ;
90 -> 92 ;
93 [label="X[1] <= 3.5\ngini = 0.386\nsamples = 23\nvalue = [17, 6]\nclass = Yes"] ;
87 -> 93 ;
94 [label="gini = 0.0\nsamples = 1\nvalue = [0, 1]\nclass = No"] ;
93 -> 94 ;
95 [label="gini = 0.351\nsamples = 22\nvalue = [17, 5]\nclass = Yes"] ;
93 -> 95 ;
96 [label="X[0] <= 28.5\ngini = 0.245\nsamples = 56\nvalue = [48, 8]\nclass = Yes"] ;
86 -> 96 ;
97 [label="X[0] <= 27.5\ngini = 0.32\nsamples = 35\nvalue = [28, 7]\nclass = Yes"] ;
96 -> 97 ;
98 [label="X[1] <= 6.5\ngini = 0.227\nsamples = 23\nvalue = [20, 3]\nclass = Yes"] ;
97 -> 98 ;
99 [label="gini = 0.0\nsamples = 3\nvalue = [3, 0]\nclass = Yes"] ;
98 -> 99 ;
100 [label="gini = 0.255\nsamples = 20\nvalue = [17, 3]\nclass = Yes"] ;
98 -> 100 ;
101 [label="X[1] <= 6.5\ngini = 0.444\nsamples = 12\nvalue = [8, 4]\nclass = Yes"] ;
97 -> 101 ;
102 [label="gini = 0.444\nsamples = 3\nvalue = [1, 2]\nclass = No"] ;
101 -> 102 ;
103 [label="gini = 0.346\nsamples = 9\nvalue = [7, 2]\nclass = Yes"] ;
101 -> 103 ;
104 [label="X[1] <= 6.5\ngini = 0.091\nsamples = 21\nvalue = [20, 1]\nclass = Yes"] ;
96 -> 104 ;
105 [label="gini = 0.0\nsamples = 6\nvalue = [6, 0]\nclass = Yes"] ;
104 -> 105 ;
106 [label="gini = 0.124\nsamples = 15\nvalue = [14, 1]\nclass = Yes"] ;
104 -> 106 ;
107 [label="X[0] <= 28.5\ngini = 0.408\nsamples = 21\nvalue = [15, 6]\nclass = Yes"] ;
85 -> 107 ;
108 [label="X[0] <= 27.5\ngini = 0.444\nsamples = 18\nvalue = [12, 6]\nclass = Yes"] ;
107 -> 108 ;
109 [label="gini = 0.444\nsamples = 9\nvalue = [6, 3]\nclass = Yes"] ;
108 -> 109 ;
110 [label="gini = 0.444\nsamples = 9\nvalue = [6, 3]\nclass = Yes"] ;
108 -> 110 ;
111 [label="gini = 0.0\nsamples = 3\nvalue = [3, 0]\nclass = Yes"] ;
107 -> 111 ;
112 [label="X[0] <= 27.5\ngini = 0.178\nsamples = 71\nvalue = [64, 7]\nclass = Yes"] ;
74 -> 112 ;
113 [label="X[1] <= 10.5\ngini = 0.231\nsamples = 30\nvalue = [26, 4]\nclass = Yes"] ;
112 -> 113 ;
114 [label="X[1] <= 9.5\ngini = 0.238\nsamples = 29\nvalue = [25, 4]\nclass = Yes"] ;
113 -> 114 ;
115 [label="X[0] <= 26.5\ngini = 0.227\nsamples = 23\nvalue = [20, 3]\nclass = Yes"] ;
114 -> 115 ;
116 [label="gini = 0.18\nsamples = 10\nvalue = [9, 1]\nclass = Yes"] ;
115 -> 116 ;
117 [label="gini = 0.26\nsamples = 13\nvalue = [11, 2]\nclass = Yes"] ;
115 -> 117 ;
118 [label="X[0] <= 26.5\ngini = 0.278\nsamples = 6\nvalue = [5, 1]\nclass = Yes"] ;
114 -> 118 ;
119 [label="gini = 0.375\nsamples = 4\nvalue = [3, 1]\nclass = Yes"] ;
118 -> 119 ;
120 [label="gini = 0.0\nsamples = 2\nvalue = [2, 0]\nclass = Yes"] ;
118 -> 120 ;
121 [label="gini = 0.0\nsamples = 1\nvalue = [1, 0]\nclass = Yes"] ;
113 -> 121 ;
122 [label="X[1] <= 9.5\ngini = 0.136\nsamples = 41\nvalue = [38, 3]\nclass = Yes"] ;
112 -> 122 ;
123 [label="X[0] <= 28.5\ngini = 0.157\nsamples = 35\nvalue = [32, 3]\nclass = Yes"] ;
122 -> 123 ;
124 [label="gini = 0.105\nsamples = 18\nvalue = [17, 1]\nclass = Yes"] ;
123 -> 124 ;
125 [label="gini = 0.208\nsamples = 17\nvalue = [15, 2]\nclass = Yes"] ;
123 -> 125 ;
126 [label="gini = 0.0\nsamples = 6\nvalue = [6, 0]\nclass = Yes"] ;
122 -> 126 ;
127 [label="X[1] <= 2.5\ngini = 0.183\nsamples = 3912\nvalue = [3513, 399]\nclass = Yes"] ;
1 -> 127 ;
128 [label="X[1] <= 0.5\ngini = 0.156\nsamples = 1416\nvalue = [1295, 121]\nclass = Yes"] ;
127 -> 128 ;
129 [label="X[0] <= 40.5\ngini = 0.209\nsamples = 413\nvalue = [364, 49]\nclass = Yes"] ;
128 -> 129 ;
130 [label="X[0] <= 35.5\ngini = 0.164\nsamples = 211\nvalue = [192, 19]\nclass = Yes"] ;
129 -> 130 ;
131 [label="X[0] <= 32.5\ngini = 0.2\nsamples = 133\nvalue = [118, 15]\nclass = Yes"] ;
130 -> 131 ;
132 [label="X[0] <= 31.5\ngini = 0.117\nsamples = 64\nvalue = [60, 4]\nclass = Yes"] ;
131 -> 132 ;
133 [label="X[0] <= 30.5\ngini = 0.087\nsamples = 44\nvalue = [42, 2]\nclass = Yes"] ;
132 -> 133 ;
134 [label="gini = 0.111\nsamples = 17\nvalue = [16, 1]\nclass = Yes"] ;
133 -> 134 ;
135 [label="gini = 0.071\nsamples = 27\nvalue = [26, 1]\nclass = Yes"] ;
133 -> 135 ;
136 [label="gini = 0.18\nsamples = 20\nvalue = [18, 2]\nclass = Yes"] ;
132 -> 136 ;
137 [label="X[0] <= 34.5\ngini = 0.268\nsamples = 69\nvalue = [58, 11]\nclass = Yes"] ;
131 -> 137 ;
138 [label="X[0] <= 33.5\ngini = 0.305\nsamples = 48\nvalue = [39, 9]\nclass = Yes"] ;
137 -> 138 ;
139 [label="gini = 0.291\nsamples = 17\nvalue = [14, 3]\nclass = Yes"] ;
138 -> 139 ;
140 [label="gini = 0.312\nsamples = 31\nvalue = [25, 6]\nclass = Yes"] ;
138 -> 140 ;
141 [label="gini = 0.172\nsamples = 21\nvalue = [19, 2]\nclass = Yes"] ;
137 -> 141 ;
142 [label="X[0] <= 36.5\ngini = 0.097\nsamples = 78\nvalue = [74, 4]\nclass = Yes"] ;
130 -> 142 ;
143 [label="gini = 0.0\nsamples = 17\nvalue = [17, 0]\nclass = Yes"] ;
142 -> 143 ;
144 [label="X[0] <= 39.5\ngini = 0.123\nsamples = 61\nvalue = [57, 4]\nclass = Yes"] ;
142 -> 144 ;
145 [label="X[0] <= 38.5\ngini = 0.113\nsamples = 50\nvalue = [47, 3]\nclass = Yes"] ;
144 -> 145 ;
146 [label="X[0] <= 37.5\ngini = 0.108\nsamples = 35\nvalue = [33, 2]\nclass = Yes"] ;
145 -> 146 ;
147 [label="gini = 0.105\nsamples = 18\nvalue = [17, 1]\nclass = Yes"] ;
146 -> 147 ;
148 [label="gini = 0.111\nsamples = 17\nvalue = [16, 1]\nclass = Yes"] ;
146 -> 148 ;
149 [label="gini = 0.124\nsamples = 15\nvalue = [14, 1]\nclass = Yes"] ;
145 -> 149 ;
150 [label="gini = 0.165\nsamples = 11\nvalue = [10, 1]\nclass = Yes"] ;
144 -> 150 ;
151 [label="X[0] <= 55.5\ngini = 0.253\nsamples = 202\nvalue = [172, 30]\nclass = Yes"] ;
129 -> 151 ;
152 [label="X[0] <= 52.5\ngini = 0.285\nsamples = 163\nvalue = [135, 28]\nclass = Yes"] ;
151 -> 152 ;
153 [label="X[0] <= 49.5\ngini = 0.267\nsamples = 145\nvalue = [122, 23]\nclass = Yes"] ;
152 -> 153 ;
154 [label="X[0] <= 44.5\ngini = 0.292\nsamples = 124\nvalue = [102, 22]\nclass = Yes"] ;
153 -> 154 ;
155 [label="X[0] <= 41.5\ngini = 0.237\nsamples = 51\nvalue = [44, 7]\nclass = Yes"] ;
154 -> 155 ;
156 [label="gini = 0.255\nsamples = 20\nvalue = [17, 3]\nclass = Yes"] ;
155 -> 156 ;
157 [label="X[0] <= 42.5\ngini = 0.225\nsamples = 31\nvalue = [27, 4]\nclass = Yes"] ;
155 -> 157 ;
158 [label="gini = 0.219\nsamples = 16\nvalue = [14, 2]\nclass = Yes"] ;
157 -> 158 ;
159 [label="X[0] <= 43.5\ngini = 0.231\nsamples = 15\nvalue = [13, 2]\nclass = Yes"] ;
157 -> 159 ;
160 [label="gini = 0.245\nsamples = 7\nvalue = [6, 1]\nclass = Yes"] ;
159 -> 160 ;
161 [label="gini = 0.219\nsamples = 8\nvalue = [7, 1]\nclass = Yes"] ;
159 -> 161 ;
162 [label="X[0] <= 47.5\ngini = 0.327\nsamples = 73\nvalue = [58, 15]\nclass = Yes"] ;
154 -> 162 ;
163 [label="X[0] <= 45.5\ngini = 0.355\nsamples = 52\nvalue = [40, 12]\nclass = Yes"] ;
162 -> 163 ;
164 [label="gini = 0.332\nsamples = 19\nvalue = [15, 4]\nclass = Yes"] ;
163 -> 164 ;
165 [label="X[0] <= 46.5\ngini = 0.367\nsamples = 33\nvalue = [25, 8]\nclass = Yes"] ;
163 -> 165 ;
166 [label="gini = 0.375\nsamples = 20\nvalue = [15, 5]\nclass = Yes"] ;
165 -> 166 ;
167 [label="gini = 0.355\nsamples = 13\nvalue = [10, 3]\nclass = Yes"] ;
165 -> 167 ;
168 [label="X[0] <= 48.5\ngini = 0.245\nsamples = 21\nvalue = [18, 3]\nclass = Yes"] ;
162 -> 168 ;
169 [label="gini = 0.165\nsamples = 11\nvalue = [10, 1]\nclass = Yes"] ;
168 -> 169 ;
170 [label="gini = 0.32\nsamples = 10\nvalue = [8, 2]\nclass = Yes"] ;
168 -> 170 ;
171 [label="X[0] <= 51.5\ngini = 0.091\nsamples = 21\nvalue = [20, 1]\nclass = Yes"] ;
153 -> 171 ;
172 [label="gini = 0.0\nsamples = 13\nvalue = [13, 0]\nclass = Yes"] ;
171 -> 172 ;
173 [label="gini = 0.219\nsamples = 8\nvalue = [7, 1]\nclass = Yes"] ;
171 -> 173 ;
174 [label="X[0] <= 54.5\ngini = 0.401\nsamples = 18\nvalue = [13, 5]\nclass = Yes"] ;
152 -> 174 ;
175 [label="X[0] <= 53.5\ngini = 0.444\nsamples = 12\nvalue = [8, 4]\nclass = Yes"] ;
174 -> 175 ;
176 [label="gini = 0.42\nsamples = 10\nvalue = [7, 3]\nclass = Yes"] ;
175 -> 176 ;
177 [label="gini = 0.5\nsamples = 2\nvalue = [1, 1]\nclass = Yes"] ;
175 -> 177 ;
178 [label="gini = 0.278\nsamples = 6\nvalue = [5, 1]\nclass = Yes"] ;
174 -> 178 ;
179 [label="X[0] <= 59.5\ngini = 0.097\nsamples = 39\nvalue = [37, 2]\nclass = Yes"] ;
151 -> 179 ;
180 [label="X[0] <= 56.5\ngini = 0.061\nsamples = 32\nvalue = [31, 1]\nclass = Yes"] ;
179 -> 180 ;
181 [label="gini = 0.153\nsamples = 12\nvalue = [11, 1]\nclass = Yes"] ;
180 -> 181 ;
182 [label="gini = 0.0\nsamples = 20\nvalue = [20, 0]\nclass = Yes"] ;
180 -> 182 ;
183 [label="gini = 0.245\nsamples = 7\nvalue = [6, 1]\nclass = Yes"] ;
179 -> 183 ;
184 [label="X[0] <= 32.5\ngini = 0.133\nsamples = 1003\nvalue = [931, 72]\nclass = Yes"] ;
128 -> 184 ;
185 [label="X[0] <= 31.5\ngini = 0.18\nsamples = 130\nvalue = [117, 13]\nclass = Yes"] ;
184 -> 185 ;
186 [label="X[0] <= 30.5\ngini = 0.124\nsamples = 75\nvalue = [70, 5]\nclass = Yes"] ;
185 -> 186 ;
187 [label="X[1] <= 1.5\ngini = 0.18\nsamples = 30\nvalue = [27, 3]\nclass = Yes"] ;
186 -> 187 ;
188 [label="gini = 0.191\nsamples = 28\nvalue = [25, 3]\nclass = Yes"] ;
187 -> 188 ;
189 [label="gini = 0.0\nsamples = 2\nvalue = [2, 0]\nclass = Yes"] ;
187 -> 189 ;
190 [label="X[1] <= 1.5\ngini = 0.085\nsamples = 45\nvalue = [43, 2]\nclass = Yes"] ;
186 -> 190 ;
191 [label="gini = 0.091\nsamples = 42\nvalue = [40, 2]\nclass = Yes"] ;
190 -> 191 ;
192 [label="gini = 0.0\nsamples = 3\nvalue = [3, 0]\nclass = Yes"] ;
190 -> 192 ;
193 [label="X[1] <= 1.5\ngini = 0.249\nsamples = 55\nvalue = [47, 8]\nclass = Yes"] ;
185 -> 193 ;
194 [label="gini = 0.269\nsamples = 50\nvalue = [42, 8]\nclass = Yes"] ;
193 -> 194 ;
195 [label="gini = 0.0\nsamples = 5\nvalue = [5, 0]\nclass = Yes"] ;
193 -> 195 ;
196 [label="X[1] <= 1.5\ngini = 0.126\nsamples = 873\nvalue = [814, 59]\nclass = Yes"] ;
184 -> 196 ;
197 [label="X[0] <= 59.5\ngini = 0.119\nsamples = 726\nvalue = [680, 46]\nclass = Yes"] ;
196 -> 197 ;
198 [label="X[0] <= 53.5\ngini = 0.117\nsamples = 720\nvalue = [675, 45]\nclass = Yes"] ;
197 -> 198 ;
199 [label="X[0] <= 39.5\ngini = 0.124\nsamples = 645\nvalue = [602, 43]\nclass = Yes"] ;
198 -> 199 ;
200 [label="X[0] <= 36.5\ngini = 0.103\nsamples = 275\nvalue = [260, 15]\nclass = Yes"] ;
199 -> 200 ;
201 [label="X[0] <= 35.5\ngini = 0.136\nsamples = 177\nvalue = [164, 13]\nclass = Yes"] ;
200 -> 201 ;
202 [label="X[0] <= 33.5\ngini = 0.111\nsamples = 136\nvalue = [128, 8]\nclass = Yes"] ;
201 -> 202 ;
203 [label="gini = 0.137\nsamples = 54\nvalue = [50, 4]\nclass = Yes"] ;
202 -> 203 ;
204 [label="X[0] <= 34.5\ngini = 0.093\nsamples = 82\nvalue = [78, 4]\nclass = Yes"] ;
202 -> 204 ;
205 [label="gini = 0.085\nsamples = 45\nvalue = [43, 2]\nclass = Yes"] ;
204 -> 205 ;
206 [label="gini = 0.102\nsamples = 37\nvalue = [35, 2]\nclass = Yes"] ;
204 -> 206 ;
207 [label="gini = 0.214\nsamples = 41\nvalue = [36, 5]\nclass = Yes"] ;
201 -> 207 ;
208 [label="X[0] <= 38.5\ngini = 0.04\nsamples = 98\nvalue = [96, 2]\nclass = Yes"] ;
200 -> 208 ;
209 [label="X[0] <= 37.5\ngini = 0.028\nsamples = 71\nvalue = [70, 1]\nclass = Yes"] ;
208 -> 209 ;
210 [label="gini = 0.053\nsamples = 37\nvalue = [36, 1]\nclass = Yes"] ;
209 -> 210 ;
211 [label="gini = 0.0\nsamples = 34\nvalue = [34, 0]\nclass = Yes"] ;
209 -> 211 ;
212 [label="gini = 0.071\nsamples = 27\nvalue = [26, 1]\nclass = Yes"] ;
208 -> 212 ;
213 [label="X[0] <= 41.5\ngini = 0.14\nsamples = 370\nvalue = [342, 28]\nclass = Yes"] ;
199 -> 213 ;
214 [label="X[0] <= 40.5\ngini = 0.212\nsamples = 58\nvalue = [51, 7]\nclass = Yes"] ;
213 -> 214 ;
215 [label="gini = 0.219\nsamples = 24\nvalue = [21, 3]\nclass = Yes"] ;
214 -> 215 ;
216 [label="gini = 0.208\nsamples = 34\nvalue = [30, 4]\nclass = Yes"] ;
214 -> 216 ;
217 [label="X[0] <= 44.5\ngini = 0.126\nsamples = 312\nvalue = [291, 21]\nclass = Yes"] ;
213 -> 217 ;
218 [label="X[0] <= 43.5\ngini = 0.065\nsamples = 89\nvalue = [86, 3]\nclass = Yes"] ;
217 -> 218 ;
219 [label="X[0] <= 42.5\ngini = 0.084\nsamples = 68\nvalue = [65, 3]\nclass = Yes"] ;
218 -> 219 ;
220 [label="gini = 0.054\nsamples = 36\nvalue = [35, 1]\nclass = Yes"] ;
219 -> 220 ;
221 [label="gini = 0.117\nsamples = 32\nvalue = [30, 2]\nclass = Yes"] ;
219 -> 221 ;
222 [label="gini = 0.0\nsamples = 21\nvalue = [21, 0]\nclass = Yes"] ;
218 -> 222 ;
223 [label="X[0] <= 51.5\ngini = 0.148\nsamples = 223\nvalue = [205, 18]\nclass = Yes"] ;
217 -> 223 ;
224 [label="X[0] <= 50.5\ngini = 0.139\nsamples = 186\nvalue = [172, 14]\nclass = Yes"] ;
223 -> 224 ;
225 [label="X[0] <= 47.5\ngini = 0.158\nsamples = 162\nvalue = [148, 14]\nclass = Yes"] ;
224 -> 225 ;
226 [label="X[0] <= 46.5\ngini = 0.174\nsamples = 83\nvalue = [75, 8]\nclass = Yes"] ;
225 -> 226 ;
227 [label="X[0] <= 45.5\ngini = 0.148\nsamples = 62\nvalue = [57, 5]\nclass = Yes"] ;
226 -> 227 ;
228 [label="gini = 0.18\nsamples = 30\nvalue = [27, 3]\nclass = Yes"] ;
227 -> 228 ;
229 [label="gini = 0.117\nsamples = 32\nvalue = [30, 2]\nclass = Yes"] ;
227 -> 229 ;
230 [label="gini = 0.245\nsamples = 21\nvalue = [18, 3]\nclass = Yes"] ;
226 -> 230 ;
231 [label="X[0] <= 48.5\ngini = 0.14\nsamples = 79\nvalue = [73, 6]\nclass = Yes"] ;
225 -> 231 ;
232 [label="gini = 0.067\nsamples = 29\nvalue = [28, 1]\nclass = Yes"] ;
231 -> 232 ;
233 [label="X[0] <= 49.5\ngini = 0.18\nsamples = 50\nvalue = [45, 5]\nclass = Yes"] ;
231 -> 233 ;
234 [label="gini = 0.204\nsamples = 26\nvalue = [23, 3]\nclass = Yes"] ;
233 -> 234 ;
235 [label="gini = 0.153\nsamples = 24\nvalue = [22, 2]\nclass = Yes"] ;
233 -> 235 ;
236 [label="gini = 0.0\nsamples = 24\nvalue = [24, 0]\nclass = Yes"] ;
224 -> 236 ;
237 [label="X[0] <= 52.5\ngini = 0.193\nsamples = 37\nvalue = [33, 4]\nclass = Yes"] ;
223 -> 237 ;
238 [label="gini = 0.198\nsamples = 18\nvalue = [16, 2]\nclass = Yes"] ;
237 -> 238 ;
239 [label="gini = 0.188\nsamples = 19\nvalue = [17, 2]\nclass = Yes"] ;
237 -> 239 ;
240 [label="X[0] <= 57.5\ngini = 0.052\nsamples = 75\nvalue = [73, 2]\nclass = Yes"] ;
198 -> 240 ;
241 [label="X[0] <= 56.5\ngini = 0.074\nsamples = 52\nvalue = [50, 2]\nclass = Yes"] ;
240 -> 241 ;
242 [label="X[0] <= 54.5\ngini = 0.049\nsamples = 40\nvalue = [39, 1]\nclass = Yes"] ;
241 -> 242 ;
243 [label="gini = 0.0\nsamples = 14\nvalue = [14, 0]\nclass = Yes"] ;
242 -> 243 ;
244 [label="X[0] <= 55.5\ngini = 0.074\nsamples = 26\nvalue = [25, 1]\nclass = Yes"] ;
242 -> 244 ;
245 [label="gini = 0.105\nsamples = 18\nvalue = [17, 1]\nclass = Yes"] ;
244 -> 245 ;
246 [label="gini = 0.0\nsamples = 8\nvalue = [8, 0]\nclass = Yes"] ;
244 -> 246 ;
247 [label="gini = 0.153\nsamples = 12\nvalue = [11, 1]\nclass = Yes"] ;
241 -> 247 ;
248 [label="gini = 0.0\nsamples = 23\nvalue = [23, 0]\nclass = Yes"] ;
240 -> 248 ;
249 [label="gini = 0.278\nsamples = 6\nvalue = [5, 1]\nclass = Yes"] ;
197 -> 249 ;
250 [label="X[0] <= 38.5\ngini = 0.161\nsamples = 147\nvalue = [134, 13]\nclass = Yes"] ;
196 -> 250 ;
251 [label="X[0] <= 34.5\ngini = 0.254\nsamples = 47\nvalue = [40, 7]\nclass = Yes"] ;
250 -> 251 ;
252 [label="gini = 0.0\nsamples = 15\nvalue = [15, 0]\nclass = Yes"] ;
251 -> 252 ;
253 [label="X[0] <= 35.5\ngini = 0.342\nsamples = 32\nvalue = [25, 7]\nclass = Yes"] ;
251 -> 253 ;
254 [label="gini = 0.444\nsamples = 6\nvalue = [4, 2]\nclass = Yes"] ;
253 -> 254 ;
255 [label="X[0] <= 37.5\ngini = 0.311\nsamples = 26\nvalue = [21, 5]\nclass = Yes"] ;
253 -> 255 ;
256 [label="X[0] <= 36.5\ngini = 0.231\nsamples = 15\nvalue = [13, 2]\nclass = Yes"] ;
255 -> 256 ;
257 [label="gini = 0.278\nsamples = 6\nvalue = [5, 1]\nclass = Yes"] ;
256 -> 257 ;
258 [label="gini = 0.198\nsamples = 9\nvalue = [8, 1]\nclass = Yes"] ;
256 -> 258 ;
259 [label="gini = 0.397\nsamples = 11\nvalue = [8, 3]\nclass = Yes"] ;
255 -> 259 ;
260 [label="X[0] <= 48.5\ngini = 0.113\nsamples = 100\nvalue = [94, 6]\nclass = Yes"] ;
250 -> 260 ;
261 [label="X[0] <= 43.5\ngini = 0.071\nsamples = 54\nvalue = [52, 2]\nclass = Yes"] ;
260 -> 261 ;
262 [label="X[0] <= 42.5\ngini = 0.117\nsamples = 32\nvalue = [30, 2]\nclass = Yes"] ;
261 -> 262 ;
263 [label="X[0] <= 40.5\ngini = 0.071\nsamples = 27\nvalue = [26, 1]\nclass = Yes"] ;
262 -> 263 ;
264 [label="gini = 0.0\nsamples = 11\nvalue = [11, 0]\nclass = Yes"] ;
263 -> 264 ;
265 [label="X[0] <= 41.5\ngini = 0.117\nsamples = 16\nvalue = [15, 1]\nclass = Yes"] ;
263 -> 265 ;
266 [label="gini = 0.219\nsamples = 8\nvalue = [7, 1]\nclass = Yes"] ;
265 -> 266 ;
267 [label="gini = 0.0\nsamples = 8\nvalue = [8, 0]\nclass = Yes"] ;
265 -> 267 ;
268 [label="gini = 0.32\nsamples = 5\nvalue = [4, 1]\nclass = Yes"] ;
262 -> 268 ;
269 [label="gini = 0.0\nsamples = 22\nvalue = [22, 0]\nclass = Yes"] ;
261 -> 269 ;
270 [label="X[0] <= 49.5\ngini = 0.159\nsamples = 46\nvalue = [42, 4]\nclass = Yes"] ;
260 -> 270 ;
271 [label="gini = 0.375\nsamples = 8\nvalue = [6, 2]\nclass = Yes"] ;
270 -> 271 ;
272 [label="X[0] <= 52.5\ngini = 0.1\nsamples = 38\nvalue = [36, 2]\nclass = Yes"] ;
270 -> 272 ;
273 [label="gini = 0.0\nsamples = 15\nvalue = [15, 0]\nclass = Yes"] ;
272 -> 273 ;
274 [label="X[0] <= 55.5\ngini = 0.159\nsamples = 23\nvalue = [21, 2]\nclass = Yes"] ;
272 -> 274 ;
275 [label="X[0] <= 54.5\ngini = 0.208\nsamples = 17\nvalue = [15, 2]\nclass = Yes"] ;
274 -> 275 ;
276 [label="X[0] <= 53.5\ngini = 0.153\nsamples = 12\nvalue = [11, 1]\nclass = Yes"] ;
275 -> 276 ;
277 [label="gini = 0.198\nsamples = 9\nvalue = [8, 1]\nclass = Yes"] ;
276 -> 277 ;
278 [label="gini = 0.0\nsamples = 3\nvalue = [3, 0]\nclass = Yes"] ;
276 -> 278 ;
279 [label="gini = 0.32\nsamples = 5\nvalue = [4, 1]\nclass = Yes"] ;
275 -> 279 ;
280 [label="gini = 0.0\nsamples = 6\nvalue = [6, 0]\nclass = Yes"] ;
274 -> 280 ;
281 [label="X[0] <= 58.5\ngini = 0.198\nsamples = 2496\nvalue = [2218, 278]\nclass = Yes"] ;
127 -> 281 ;
282 [label="X[1] <= 4.5\ngini = 0.193\nsamples = 2408\nvalue = [2148, 260]\nclass = Yes"] ;
281 -> 282 ;
283 [label="X[0] <= 55.5\ngini = 0.222\nsamples = 959\nvalue = [837, 122]\nclass = Yes"] ;
282 -> 283 ;
284 [label="X[0] <= 31.5\ngini = 0.235\nsamples = 888\nvalue = [767, 121]\nclass = Yes"] ;
283 -> 284 ;
285 [label="X[0] <= 30.5\ngini = 0.306\nsamples = 85\nvalue = [69, 16]\nclass = Yes"] ;
284 -> 285 ;
286 [label="X[1] <= 3.5\ngini = 0.295\nsamples = 39\nvalue = [32, 7]\nclass = Yes"] ;
285 -> 286 ;
287 [label="gini = 0.0\nsamples = 2\nvalue = [2, 0]\nclass = Yes"] ;
286 -> 287 ;
288 [label="gini = 0.307\nsamples = 37\nvalue = [30, 7]\nclass = Yes"] ;
286 -> 288 ;
289 [label="X[1] <= 3.5\ngini = 0.315\nsamples = 46\nvalue = [37, 9]\nclass = Yes"] ;
285 -> 289 ;
290 [label="gini = 0.375\nsamples = 4\nvalue = [3, 1]\nclass = Yes"] ;
289 -> 290 ;
291 [label="gini = 0.308\nsamples = 42\nvalue = [34, 8]\nclass = Yes"] ;
289 -> 291 ;
292 [label="X[0] <= 51.5\ngini = 0.227\nsamples = 803\nvalue = [698, 105]\nclass = Yes"] ;
284 -> 292 ;
293 [label="X[0] <= 49.5\ngini = 0.222\nsamples = 730\nvalue = [637, 93]\nclass = Yes"] ;
292 -> 293 ;
294 [label="X[0] <= 48.5\ngini = 0.227\nsamples = 681\nvalue = [592, 89]\nclass = Yes"] ;
293 -> 294 ;
295 [label="X[0] <= 38.5\ngini = 0.222\nsamples = 659\nvalue = [575, 84]\nclass = Yes"] ;
294 -> 295 ;
296 [label="X[1] <= 3.5\ngini = 0.237\nsamples = 357\nvalue = [308, 49]\nclass = Yes"] ;
295 -> 296 ;
297 [label="X[0] <= 33.5\ngini = 0.346\nsamples = 18\nvalue = [14, 4]\nclass = Yes"] ;
296 -> 297 ;
298 [label="gini = 0.0\nsamples = 3\nvalue = [3, 0]\nclass = Yes"] ;
297 -> 298 ;
299 [label="X[0] <= 34.5\ngini = 0.391\nsamples = 15\nvalue = [11, 4]\nclass = Yes"] ;
297 -> 299 ;
300 [label="gini = 0.444\nsamples = 3\nvalue = [1, 2]\nclass = No"] ;
299 -> 300 ;
301 [label="X[0] <= 37.5\ngini = 0.278\nsamples = 12\nvalue = [10, 2]\nclass = Yes"] ;
299 -> 301 ;
302 [label="X[0] <= 35.5\ngini = 0.198\nsamples = 9\nvalue = [8, 1]\nclass = Yes"] ;
301 -> 302 ;
303 [label="gini = 0.32\nsamples = 5\nvalue = [4, 1]\nclass = Yes"] ;
302 -> 303 ;
304 [label="gini = 0.0\nsamples = 4\nvalue = [4, 0]\nclass = Yes"] ;
302 -> 304 ;
305 [label="gini = 0.444\nsamples = 3\nvalue = [2, 1]\nclass = Yes"] ;
301 -> 305 ;
306 [label="X[0] <= 35.5\ngini = 0.23\nsamples = 339\nvalue = [294, 45]\nclass = Yes"] ;
296 -> 306 ;
307 [label="X[0] <= 32.5\ngini = 0.203\nsamples = 209\nvalue = [185, 24]\nclass = Yes"] ;
306 -> 307 ;
308 [label="gini = 0.238\nsamples = 58\nvalue = [50, 8]\nclass = Yes"] ;
307 -> 308 ;
309 [label="X[0] <= 34.5\ngini = 0.189\nsamples = 151\nvalue = [135, 16]\nclass = Yes"] ;
307 -> 309 ;
310 [label="X[0] <= 33.5\ngini = 0.194\nsamples = 110\nvalue = [98, 12]\nclass = Yes"] ;
309 -> 310 ;
311 [label="gini = 0.194\nsamples = 46\nvalue = [41, 5]\nclass = Yes"] ;
310 -> 311 ;
312 [label="gini = 0.195\nsamples = 64\nvalue = [57, 7]\nclass = Yes"] ;
310 -> 312 ;
313 [label="gini = 0.176\nsamples = 41\nvalue = [37, 4]\nclass = Yes"] ;
309 -> 313 ;
314 [label="X[0] <= 37.5\ngini = 0.271\nsamples = 130\nvalue = [109, 21]\nclass = Yes"] ;
306 -> 314 ;
315 [label="X[0] <= 36.5\ngini = 0.285\nsamples = 93\nvalue = [77, 16]\nclass = Yes"] ;
314 -> 315 ;
316 [label="gini = 0.27\nsamples = 56\nvalue = [47, 9]\nclass = Yes"] ;
315 -> 316 ;
317 [label="gini = 0.307\nsamples = 37\nvalue = [30, 7]\nclass = Yes"] ;
315 -> 317 ;
318 [label="gini = 0.234\nsamples = 37\nvalue = [32, 5]\nclass = Yes"] ;
314 -> 318 ;
319 [label="X[0] <= 46.5\ngini = 0.205\nsamples = 302\nvalue = [267, 35]\nclass = Yes"] ;
295 -> 319 ;
320 [label="X[1] <= 3.5\ngini = 0.192\nsamples = 242\nvalue = [216, 26]\nclass = Yes"] ;
319 -> 320 ;
321 [label="gini = 0.0\nsamples = 19\nvalue = [19, 0]\nclass = Yes"] ;
320 -> 321 ;
322 [label="X[0] <= 41.5\ngini = 0.206\nsamples = 223\nvalue = [197, 26]\nclass = Yes"] ;
320 -> 322 ;
323 [label="X[0] <= 39.5\ngini = 0.178\nsamples = 91\nvalue = [82, 9]\nclass = Yes"] ;
322 -> 323 ;
324 [label="gini = 0.142\nsamples = 26\nvalue = [24, 2]\nclass = Yes"] ;
323 -> 324 ;
325 [label="X[0] <= 40.5\ngini = 0.192\nsamples = 65\nvalue = [58, 7]\nclass = Yes"] ;
323 -> 325 ;
326 [label="gini = 0.188\nsamples = 38\nvalue = [34, 4]\nclass = Yes"] ;
325 -> 326 ;
327 [label="gini = 0.198\nsamples = 27\nvalue = [24, 3]\nclass = Yes"] ;
325 -> 327 ;
328 [label="X[0] <= 42.5\ngini = 0.224\nsamples = 132\nvalue = [115, 17]\nclass = Yes"] ;
322 -> 328 ;
329 [label="gini = 0.293\nsamples = 28\nvalue = [23, 5]\nclass = Yes"] ;
328 -> 329 ;
330 [label="X[0] <= 43.5\ngini = 0.204\nsamples = 104\nvalue = [92, 12]\nclass = Yes"] ;
328 -> 330 ;
331 [label="gini = 0.231\nsamples = 30\nvalue = [26, 4]\nclass = Yes"] ;
330 -> 331 ;
332 [label="X[0] <= 44.5\ngini = 0.193\nsamples = 74\nvalue = [66, 8]\nclass = Yes"] ;
330 -> 332 ;
333 [label="gini = 0.175\nsamples = 31\nvalue = [28, 3]\nclass = Yes"] ;
332 -> 333 ;
334 [label="X[0] <= 45.5\ngini = 0.206\nsamples = 43\nvalue = [38, 5]\nclass = Yes"] ;
332 -> 334 ;
335 [label="gini = 0.231\nsamples = 15\nvalue = [13, 2]\nclass = Yes"] ;
334 -> 335 ;
336 [label="gini = 0.191\nsamples = 28\nvalue = [25, 3]\nclass = Yes"] ;
334 -> 336 ;
337 [label="X[1] <= 3.5\ngini = 0.255\nsamples = 60\nvalue = [51, 9]\nclass = Yes"] ;
319 -> 337 ;
338 [label="X[0] <= 47.5\ngini = 0.444\nsamples = 6\nvalue = [4, 2]\nclass = Yes"] ;
337 -> 338 ;
339 [label="gini = 0.32\nsamples = 5\nvalue = [4, 1]\nclass = Yes"] ;
338 -> 339 ;
340 [label="gini = 0.0\nsamples = 1\nvalue = [0, 1]\nclass = No"] ;
338 -> 340 ;
341 [label="X[0] <= 47.5\ngini = 0.226\nsamples = 54\nvalue = [47, 7]\nclass = Yes"] ;
337 -> 341 ;
342 [label="gini = 0.266\nsamples = 19\nvalue = [16, 3]\nclass = Yes"] ;
341 -> 342 ;
343 [label="gini = 0.202\nsamples = 35\nvalue = [31, 4]\nclass = Yes"] ;
341 -> 343 ;
344 [label="X[1] <= 3.5\ngini = 0.351\nsamples = 22\nvalue = [17, 5]\nclass = Yes"] ;
294 -> 344 ;
345 [label="gini = 0.375\nsamples = 4\nvalue = [3, 1]\nclass = Yes"] ;
344 -> 345 ;
346 [label="gini = 0.346\nsamples = 18\nvalue = [14, 4]\nclass = Yes"] ;
344 -> 346 ;
347 [label="X[0] <= 50.5\ngini = 0.15\nsamples = 49\nvalue = [45, 4]\nclass = Yes"] ;
293 -> 347 ;
348 [label="X[1] <= 3.5\ngini = 0.133\nsamples = 28\nvalue = [26, 2]\nclass = Yes"] ;
347 -> 348 ;
349 [label="gini = 0.0\nsamples = 5\nvalue = [5, 0]\nclass = Yes"] ;
348 -> 349 ;
350 [label="gini = 0.159\nsamples = 23\nvalue = [21, 2]\nclass = Yes"] ;
348 -> 350 ;
351 [label="X[1] <= 3.5\ngini = 0.172\nsamples = 21\nvalue = [19, 2]\nclass = Yes"] ;
347 -> 351 ;
352 [label="gini = 0.245\nsamples = 7\nvalue = [6, 1]\nclass = Yes"] ;
351 -> 352 ;
353 [label="gini = 0.133\nsamples = 14\nvalue = [13, 1]\nclass = Yes"] ;
351 -> 353 ;
354 [label="X[0] <= 54.5\ngini = 0.275\nsamples = 73\nvalue = [61, 12]\nclass = Yes"] ;
292 -> 354 ;
355 [label="X[0] <= 53.5\ngini = 0.26\nsamples = 52\nvalue = [44, 8]\nclass = Yes"] ;
354 -> 355 ;
356 [label="X[1] <= 3.5\ngini = 0.291\nsamples = 34\nvalue = [28, 6]\nclass = Yes"] ;
355 -> 356 ;
357 [label="X[0] <= 52.5\ngini = 0.444\nsamples = 3\nvalue = [2, 1]\nclass = Yes"] ;
356 -> 357 ;
358 [label="gini = 0.0\nsamples = 1\nvalue = [1, 0]\nclass = Yes"] ;
357 -> 358 ;
359 [label="gini = 0.5\nsamples = 2\nvalue = [1, 1]\nclass = Yes"] ;
357 -> 359 ;
360 [label="X[0] <= 52.5\ngini = 0.271\nsamples = 31\nvalue = [26, 5]\nclass = Yes"] ;
356 -> 360 ;
361 [label="gini = 0.305\nsamples = 16\nvalue = [13, 3]\nclass = Yes"] ;
360 -> 361 ;
362 [label="gini = 0.231\nsamples = 15\nvalue = [13, 2]\nclass = Yes"] ;
360 -> 362 ;
363 [label="X[1] <= 3.5\ngini = 0.198\nsamples = 18\nvalue = [16, 2]\nclass = Yes"] ;
355 -> 363 ;
364 [label="gini = 0.0\nsamples = 3\nvalue = [3, 0]\nclass = Yes"] ;
363 -> 364 ;
365 [label="gini = 0.231\nsamples = 15\nvalue = [13, 2]\nclass = Yes"] ;
363 -> 365 ;
366 [label="X[1] <= 3.5\ngini = 0.308\nsamples = 21\nvalue = [17, 4]\nclass = Yes"] ;
354 -> 366 ;
367 [label="gini = 0.375\nsamples = 4\nvalue = [3, 1]\nclass = Yes"] ;
366 -> 367 ;
368 [label="gini = 0.291\nsamples = 17\nvalue = [14, 3]\nclass = Yes"] ;
366 -> 368 ;
369 [label="X[1] <= 3.5\ngini = 0.028\nsamples = 71\nvalue = [70, 1]\nclass = Yes"] ;
283 -> 369 ;
370 [label="X[0] <= 56.5\ngini = 0.105\nsamples = 18\nvalue = [17, 1]\nclass = Yes"] ;
369 -> 370 ;
371 [label="gini = 0.444\nsamples = 3\nvalue = [2, 1]\nclass = Yes"] ;
370 -> 371 ;
372 [label="gini = 0.0\nsamples = 15\nvalue = [15, 0]\nclass = Yes"] ;
370 -> 372 ;
373 [label="gini = 0.0\nsamples = 53\nvalue = [53, 0]\nclass = Yes"] ;
369 -> 373 ;
374 [label="X[1] <= 10.5\ngini = 0.172\nsamples = 1449\nvalue = [1311, 138]\nclass = Yes"] ;
282 -> 374 ;
375 [label="X[0] <= 31.5\ngini = 0.169\nsamples = 1418\nvalue = [1286, 132]\nclass = Yes"] ;
374 -> 375 ;
376 [label="X[1] <= 9.5\ngini = 0.118\nsamples = 143\nvalue = [134, 9]\nclass = Yes"] ;
375 -> 376 ;
377 [label="X[1] <= 8.5\ngini = 0.103\nsamples = 129\nvalue = [122, 7]\nclass = Yes"] ;
376 -> 377 ;
378 [label="X[1] <= 6.5\ngini = 0.064\nsamples = 60\nvalue = [58, 2]\nclass = Yes"] ;
377 -> 378 ;
379 [label="gini = 0.0\nsamples = 13\nvalue = [13, 0]\nclass = Yes"] ;
378 -> 379 ;
380 [label="X[1] <= 7.5\ngini = 0.081\nsamples = 47\nvalue = [45, 2]\nclass = Yes"] ;
378 -> 380 ;
381 [label="X[0] <= 30.5\ngini = 0.095\nsamples = 40\nvalue = [38, 2]\nclass = Yes"] ;
380 -> 381 ;
382 [label="gini = 0.1\nsamples = 19\nvalue = [18, 1]\nclass = Yes"] ;
381 -> 382 ;
383 [label="gini = 0.091\nsamples = 21\nvalue = [20, 1]\nclass = Yes"] ;
381 -> 383 ;
384 [label="gini = 0.0\nsamples = 7\nvalue = [7, 0]\nclass = Yes"] ;
380 -> 384 ;
385 [label="X[0] <= 30.5\ngini = 0.134\nsamples = 69\nvalue = [64, 5]\nclass = Yes"] ;
377 -> 385 ;
386 [label="gini = 0.198\nsamples = 27\nvalue = [24, 3]\nclass = Yes"] ;
385 -> 386 ;
387 [label="gini = 0.091\nsamples = 42\nvalue = [40, 2]\nclass = Yes"] ;
385 -> 387 ;
388 [label="X[0] <= 30.5\ngini = 0.245\nsamples = 14\nvalue = [12, 2]\nclass = Yes"] ;
376 -> 388 ;
389 [label="gini = 0.278\nsamples = 6\nvalue = [5, 1]\nclass = Yes"] ;
388 -> 389 ;
390 [label="gini = 0.219\nsamples = 8\nvalue = [7, 1]\nclass = Yes"] ;
388 -> 390 ;
391 [label="X[0] <= 35.5\ngini = 0.174\nsamples = 1275\nvalue = [1152, 123]\nclass = Yes"] ;
375 -> 391 ;
392 [label="X[1] <= 7.5\ngini = 0.198\nsamples = 297\nvalue = [264, 33]\nclass = Yes"] ;
391 -> 392 ;
393 [label="X[0] <= 34.5\ngini = 0.253\nsamples = 101\nvalue = [86, 15]\nclass = Yes"] ;
392 -> 393 ;
394 [label="X[1] <= 6.5\ngini = 0.284\nsamples = 76\nvalue = [63, 13]\nclass = Yes"] ;
393 -> 394 ;
395 [label="X[0] <= 32.5\ngini = 0.236\nsamples = 22\nvalue = [19, 3]\nclass = Yes"] ;
394 -> 395 ;
396 [label="gini = 0.0\nsamples = 8\nvalue = [8, 0]\nclass = Yes"] ;
395 -> 396 ;
397 [label="X[0] <= 33.5\ngini = 0.337\nsamples = 14\nvalue = [11, 3]\nclass = Yes"] ;
395 -> 397 ;
398 [label="gini = 0.278\nsamples = 6\nvalue = [5, 1]\nclass = Yes"] ;
397 -> 398 ;
399 [label="gini = 0.375\nsamples = 8\nvalue = [6, 2]\nclass = Yes"] ;
397 -> 399 ;
400 [label="X[0] <= 33.5\ngini = 0.302\nsamples = 54\nvalue = [44, 10]\nclass = Yes"] ;
394 -> 400 ;
401 [label="X[0] <= 32.5\ngini = 0.308\nsamples = 42\nvalue = [34, 8]\nclass = Yes"] ;
400 -> 401 ;
402 [label="gini = 0.311\nsamples = 26\nvalue = [21, 5]\nclass = Yes"] ;
401 -> 402 ;
403 [label="gini = 0.305\nsamples = 16\nvalue = [13, 3]\nclass = Yes"] ;
401 -> 403 ;
404 [label="gini = 0.278\nsamples = 12\nvalue = [10, 2]\nclass = Yes"] ;
400 -> 404 ;
405 [label="X[1] <= 5.5\ngini = 0.147\nsamples = 25\nvalue = [23, 2]\nclass = Yes"] ;
393 -> 405 ;
406 [label="gini = 0.0\nsamples = 1\nvalue = [1, 0]\nclass = Yes"] ;
405 -> 406 ;
407 [label="X[1] <= 6.5\ngini = 0.153\nsamples = 24\nvalue = [22, 2]\nclass = Yes"] ;
405 -> 407 ;
408 [label="gini = 0.198\nsamples = 9\nvalue = [8, 1]\nclass = Yes"] ;
407 -> 408 ;
409 [label="gini = 0.124\nsamples = 15\nvalue = [14, 1]\nclass = Yes"] ;
407 -> 409 ;
410 [label="X[0] <= 34.5\ngini = 0.167\nsamples = 196\nvalue = [178, 18]\nclass = Yes"] ;
392 -> 410 ;
411 [label="X[1] <= 9.5\ngini = 0.145\nsamples = 153\nvalue = [141, 12]\nclass = Yes"] ;
410 -> 411 ;
412 [label="X[1] <= 8.5\ngini = 0.155\nsamples = 142\nvalue = [130, 12]\nclass = Yes"] ;
411 -> 412 ;
413 [label="gini = 0.0\nsamples = 5\nvalue = [5, 0]\nclass = Yes"] ;
412 -> 413 ;
414 [label="X[0] <= 32.5\ngini = 0.16\nsamples = 137\nvalue = [125, 12]\nclass = Yes"] ;
412 -> 414 ;
415 [label="gini = 0.183\nsamples = 49\nvalue = [44, 5]\nclass = Yes"] ;
414 -> 415 ;
416 [label="X[0] <= 33.5\ngini = 0.146\nsamples = 88\nvalue = [81, 7]\nclass = Yes"] ;
414 -> 416 ;
417 [label="gini = 0.102\nsamples = 37\nvalue = [35, 2]\nclass = Yes"] ;
416 -> 417 ;
418 [label="gini = 0.177\nsamples = 51\nvalue = [46, 5]\nclass = Yes"] ;
416 -> 418 ;
419 [label="gini = 0.0\nsamples = 11\nvalue = [11, 0]\nclass = Yes"] ;
411 -> 419 ;
420 [label="X[1] <= 9.5\ngini = 0.24\nsamples = 43\nvalue = [37, 6]\nclass = Yes"] ;
410 -> 420 ;
421 [label="X[1] <= 8.5\ngini = 0.224\nsamples = 39\nvalue = [34, 5]\nclass = Yes"] ;
420 -> 421 ;
422 [label="gini = 0.0\nsamples = 1\nvalue = [1, 0]\nclass = Yes"] ;
421 -> 422 ;
423 [label="gini = 0.229\nsamples = 38\nvalue = [33, 5]\nclass = Yes"] ;
421 -> 423 ;
424 [label="gini = 0.375\nsamples = 4\nvalue = [3, 1]\nclass = Yes"] ;
420 -> 424 ;
425 [label="X[0] <= 36.5\ngini = 0.167\nsamples = 978\nvalue = [888, 90]\nclass = Yes"] ;
391 -> 425 ;
426 [label="X[1] <= 8.5\ngini = 0.087\nsamples = 66\nvalue = [63, 3]\nclass = Yes"] ;
425 -> 426 ;
427 [label="gini = 0.0\nsamples = 29\nvalue = [29, 0]\nclass = Yes"] ;
426 -> 427 ;
428 [label="X[1] <= 9.5\ngini = 0.149\nsamples = 37\nvalue = [34, 3]\nclass = Yes"] ;
426 -> 428 ;
429 [label="gini = 0.165\nsamples = 33\nvalue = [30, 3]\nclass = Yes"] ;
428 -> 429 ;
430 [label="gini = 0.0\nsamples = 4\nvalue = [4, 0]\nclass = Yes"] ;
428 -> 430 ;
431 [label="X[0] <= 39.5\ngini = 0.173\nsamples = 912\nvalue = [825, 87]\nclass = Yes"] ;
425 -> 431 ;
432 [label="X[1] <= 8.5\ngini = 0.203\nsamples = 166\nvalue = [147, 19]\nclass = Yes"] ;
431 -> 432 ;
433 [label="X[0] <= 38.5\ngini = 0.133\nsamples = 70\nvalue = [65, 5]\nclass = Yes"] ;
432 -> 433 ;
434 [label="X[0] <= 37.5\ngini = 0.043\nsamples = 45\nvalue = [44, 1]\nclass = Yes"] ;
433 -> 434 ;
435 [label="gini = 0.0\nsamples = 24\nvalue = [24, 0]\nclass = Yes"] ;
434 -> 435 ;
436 [label="X[1] <= 6.5\ngini = 0.091\nsamples = 21\nvalue = [20, 1]\nclass = Yes"] ;
434 -> 436 ;
437 [label="gini = 0.0\nsamples = 7\nvalue = [7, 0]\nclass = Yes"] ;
436 -> 437 ;
438 [label="X[1] <= 7.5\ngini = 0.133\nsamples = 14\nvalue = [13, 1]\nclass = Yes"] ;
436 -> 438 ;
439 [label="gini = 0.142\nsamples = 13\nvalue = [12, 1]\nclass = Yes"] ;
438 -> 439 ;
440 [label="gini = 0.0\nsamples = 1\nvalue = [1, 0]\nclass = Yes"] ;
438 -> 440 ;
441 [label="X[1] <= 6.5\ngini = 0.269\nsamples = 25\nvalue = [21, 4]\nclass = Yes"] ;
433 -> 441 ;
442 [label="gini = 0.32\nsamples = 10\nvalue = [8, 2]\nclass = Yes"] ;
441 -> 442 ;
443 [label="gini = 0.231\nsamples = 15\nvalue = [13, 2]\nclass = Yes"] ;
441 -> 443 ;
444 [label="X[0] <= 38.5\ngini = 0.249\nsamples = 96\nvalue = [82, 14]\nclass = Yes"] ;
432 -> 444 ;
445 [label="X[1] <= 9.5\ngini = 0.291\nsamples = 68\nvalue = [56, 12]\nclass = Yes"] ;
444 -> 445 ;
446 [label="X[0] <= 37.5\ngini = 0.282\nsamples = 59\nvalue = [49, 10]\nclass = Yes"] ;
445 -> 446 ;
447 [label="gini = 0.278\nsamples = 30\nvalue = [25, 5]\nclass = Yes"] ;
446 -> 447 ;
448 [label="gini = 0.285\nsamples = 29\nvalue = [24, 5]\nclass = Yes"] ;
446 -> 448 ;
449 [label="X[0] <= 37.5\ngini = 0.346\nsamples = 9\nvalue = [7, 2]\nclass = Yes"] ;
445 -> 449 ;
450 [label="gini = 0.444\nsamples = 3\nvalue = [2, 1]\nclass = Yes"] ;
449 -> 450 ;
451 [label="gini = 0.278\nsamples = 6\nvalue = [5, 1]\nclass = Yes"] ;
449 -> 451 ;
452 [label="X[1] <= 9.5\ngini = 0.133\nsamples = 28\nvalue = [26, 2]\nclass = Yes"] ;
444 -> 452 ;
453 [label="gini = 0.137\nsamples = 27\nvalue = [25, 2]\nclass = Yes"] ;
452 -> 453 ;
454 [label="gini = 0.0\nsamples = 1\nvalue = [1, 0]\nclass = Yes"] ;
452 -> 454 ;
455 [label="X[0] <= 40.5\ngini = 0.166\nsamples = 746\nvalue = [678, 68]\nclass = Yes"] ;
431 -> 455 ;
456 [label="X[1] <= 7.5\ngini = 0.032\nsamples = 62\nvalue = [61, 1]\nclass = Yes"] ;
455 -> 456 ;
457 [label="X[1] <= 6.5\ngini = 0.059\nsamples = 33\nvalue = [32, 1]\nclass = Yes"] ;
456 -> 457 ;
458 [label="gini = 0.0\nsamples = 10\nvalue = [10, 0]\nclass = Yes"] ;
457 -> 458 ;
459 [label="gini = 0.083\nsamples = 23\nvalue = [22, 1]\nclass = Yes"] ;
457 -> 459 ;
460 [label="gini = 0.0\nsamples = 29\nvalue = [29, 0]\nclass = Yes"] ;
456 -> 460 ;
461 [label="X[0] <= 56.5\ngini = 0.177\nsamples = 684\nvalue = [617, 67]\nclass = Yes"] ;
455 -> 461 ;
462 [label="X[1] <= 5.5\ngini = 0.182\nsamples = 601\nvalue = [540, 61]\nclass = Yes"] ;
461 -> 462 ;
463 [label="X[0] <= 50.0\ngini = 0.249\nsamples = 55\nvalue = [47, 8]\nclass = Yes"] ;
462 -> 463 ;
464 [label="gini = 0.0\nsamples = 9\nvalue = [9, 0]\nclass = Yes"] ;
463 -> 464 ;
465 [label="X[0] <= 55.5\ngini = 0.287\nsamples = 46\nvalue = [38, 8]\nclass = Yes"] ;
463 -> 465 ;
466 [label="X[0] <= 51.5\ngini = 0.245\nsamples = 35\nvalue = [30, 5]\nclass = Yes"] ;
465 -> 466 ;
467 [label="gini = 0.444\nsamples = 3\nvalue = [2, 1]\nclass = Yes"] ;
466 -> 467 ;
468 [label="X[0] <= 52.5\ngini = 0.219\nsamples = 32\nvalue = [28, 4]\nclass = Yes"] ;
466 -> 468 ;
469 [label="gini = 0.0\nsamples = 4\nvalue = [4, 0]\nclass = Yes"] ;
468 -> 469 ;
470 [label="X[0] <= 53.5\ngini = 0.245\nsamples = 28\nvalue = [24, 4]\nclass = Yes"] ;
468 -> 470 ;
471 [label="gini = 0.278\nsamples = 6\nvalue = [5, 1]\nclass = Yes"] ;
470 -> 471 ;
472 [label="X[0] <= 54.5\ngini = 0.236\nsamples = 22\nvalue = [19, 3]\nclass = Yes"] ;
470 -> 472 ;
473 [label="gini = 0.219\nsamples = 8\nvalue = [7, 1]\nclass = Yes"] ;
472 -> 473 ;
474 [label="gini = 0.245\nsamples = 14\nvalue = [12, 2]\nclass = Yes"] ;
472 -> 474 ;
475 [label="gini = 0.397\nsamples = 11\nvalue = [8, 3]\nclass = Yes"] ;
465 -> 475 ;
476 [label="X[1] <= 8.5\ngini = 0.175\nsamples = 546\nvalue = [493, 53]\nclass = Yes"] ;
462 -> 476 ;
477 [label="X[0] <= 53.5\ngini = 0.149\nsamples = 209\nvalue = [192, 17]\nclass = Yes"] ;
476 -> 477 ;
478 [label="X[0] <= 52.5\ngini = 0.175\nsamples = 176\nvalue = [159, 17]\nclass = Yes"] ;
477 -> 478 ;
479 [label="X[0] <= 42.5\ngini = 0.164\nsamples = 166\nvalue = [151, 15]\nclass = Yes"] ;
478 -> 479 ;
480 [label="X[1] <= 7.5\ngini = 0.121\nsamples = 31\nvalue = [29, 2]\nclass = Yes"] ;
479 -> 480 ;
481 [label="X[0] <= 41.5\ngini = 0.128\nsamples = 29\nvalue = [27, 2]\nclass = Yes"] ;
480 -> 481 ;
482 [label="X[1] <= 6.5\ngini = 0.142\nsamples = 13\nvalue = [12, 1]\nclass = Yes"] ;
481 -> 482 ;
483 [label="gini = 0.278\nsamples = 6\nvalue = [5, 1]\nclass = Yes"] ;
482 -> 483 ;
484 [label="gini = 0.0\nsamples = 7\nvalue = [7, 0]\nclass = Yes"] ;
482 -> 484 ;
485 [label="X[1] <= 6.5\ngini = 0.117\nsamples = 16\nvalue = [15, 1]\nclass = Yes"] ;
481 -> 485 ;
486 [label="gini = 0.0\nsamples = 7\nvalue = [7, 0]\nclass = Yes"] ;
485 -> 486 ;
487 [label="gini = 0.198\nsamples = 9\nvalue = [8, 1]\nclass = Yes"] ;
485 -> 487 ;
488 [label="gini = 0.0\nsamples = 2\nvalue = [2, 0]\nclass = Yes"] ;
480 -> 488 ;
489 [label="X[0] <= 50.5\ngini = 0.174\nsamples = 135\nvalue = [122, 13]\nclass = Yes"] ;
479 -> 489 ;
490 [label="X[0] <= 46.5\ngini = 0.167\nsamples = 109\nvalue = [99, 10]\nclass = Yes"] ;
489 -> 490 ;
491 [label="X[0] <= 45.5\ngini = 0.194\nsamples = 46\nvalue = [41, 5]\nclass = Yes"] ;
490 -> 491 ;
492 [label="X[0] <= 43.5\ngini = 0.161\nsamples = 34\nvalue = [31, 3]\nclass = Yes"] ;
491 -> 492 ;
493 [label="X[1] <= 6.5\ngini = 0.18\nsamples = 10\nvalue = [9, 1]\nclass = Yes"] ;
492 -> 493 ;
494 [label="gini = 0.0\nsamples = 4\nvalue = [4, 0]\nclass = Yes"] ;
493 -> 494 ;
495 [label="gini = 0.278\nsamples = 6\nvalue = [5, 1]\nclass = Yes"] ;
493 -> 495 ;
496 [label="X[1] <= 6.5\ngini = 0.153\nsamples = 24\nvalue = [22, 2]\nclass = Yes"] ;
492 -> 496 ;
497 [label="X[0] <= 44.5\ngini = 0.245\nsamples = 7\nvalue = [6, 1]\nclass = Yes"] ;
496 -> 497 ;
498 [label="gini = 0.375\nsamples = 4\nvalue = [3, 1]\nclass = Yes"] ;
497 -> 498 ;
499 [label="gini = 0.0\nsamples = 3\nvalue = [3, 0]\nclass = Yes"] ;
497 -> 499 ;
500 [label="X[0] <= 44.5\ngini = 0.111\nsamples = 17\nvalue = [16, 1]\nclass = Yes"] ;
496 -> 500 ;
501 [label="gini = 0.0\nsamples = 9\nvalue = [9, 0]\nclass = Yes"] ;
500 -> 501 ;
502 [label="gini = 0.219\nsamples = 8\nvalue = [7, 1]\nclass = Yes"] ;
500 -> 502 ;
503 [label="X[1] <= 6.5\ngini = 0.278\nsamples = 12\nvalue = [10, 2]\nclass = Yes"] ;
491 -> 503 ;
504 [label="gini = 0.375\nsamples = 4\nvalue = [3, 1]\nclass = Yes"] ;
503 -> 504 ;
505 [label="gini = 0.219\nsamples = 8\nvalue = [7, 1]\nclass = Yes"] ;
503 -> 505 ;
506 [label="X[1] <= 6.5\ngini = 0.146\nsamples = 63\nvalue = [58, 5]\nclass = Yes"] ;
490 -> 506 ;
507 [label="X[0] <= 49.5\ngini = 0.091\nsamples = 21\nvalue = [20, 1]\nclass = Yes"] ;
506 -> 507 ;
508 [label="gini = 0.0\nsamples = 12\nvalue = [12, 0]\nclass = Yes"] ;
507 -> 508 ;
509 [label="gini = 0.198\nsamples = 9\nvalue = [8, 1]\nclass = Yes"] ;
507 -> 509 ;
510 [label="X[0] <= 49.5\ngini = 0.172\nsamples = 42\nvalue = [38, 4]\nclass = Yes"] ;
506 -> 510 ;
511 [label="X[0] <= 48.5\ngini = 0.208\nsamples = 34\nvalue = [30, 4]\nclass = Yes"] ;
510 -> 511 ;
512 [label="X[0] <= 47.5\ngini = 0.172\nsamples = 21\nvalue = [19, 2]\nclass = Yes"] ;
511 -> 512 ;
513 [label="gini = 0.245\nsamples = 14\nvalue = [12, 2]\nclass = Yes"] ;
512 -> 513 ;
514 [label="gini = 0.0\nsamples = 7\nvalue = [7, 0]\nclass = Yes"] ;
512 -> 514 ;
515 [label="gini = 0.26\nsamples = 13\nvalue = [11, 2]\nclass = Yes"] ;
511 -> 515 ;
516 [label="gini = 0.0\nsamples = 8\nvalue = [8, 0]\nclass = Yes"] ;
510 -> 516 ;
517 [label="X[1] <= 6.5\ngini = 0.204\nsamples = 26\nvalue = [23, 3]\nclass = Yes"] ;
489 -> 517 ;
518 [label="X[0] <= 51.5\ngini = 0.298\nsamples = 11\nvalue = [9, 2]\nclass = Yes"] ;
517 -> 518 ;
519 [label="gini = 0.375\nsamples = 8\nvalue = [6, 2]\nclass = Yes"] ;
518 -> 519 ;
520 [label="gini = 0.0\nsamples = 3\nvalue = [3, 0]\nclass = Yes"] ;
518 -> 520 ;
521 [label="X[0] <= 51.5\ngini = 0.124\nsamples = 15\nvalue = [14, 1]\nclass = Yes"] ;
517 -> 521 ;
522 [label="gini = 0.0\nsamples = 6\nvalue = [6, 0]\nclass = Yes"] ;
521 -> 522 ;
523 [label="gini = 0.198\nsamples = 9\nvalue = [8, 1]\nclass = Yes"] ;
521 -> 523 ;
524 [label="X[1] <= 6.5\ngini = 0.32\nsamples = 10\nvalue = [8, 2]\nclass = Yes"] ;
478 -> 524 ;
525 [label="gini = 0.0\nsamples = 2\nvalue = [2, 0]\nclass = Yes"] ;
524 -> 525 ;
526 [label="gini = 0.375\nsamples = 8\nvalue = [6, 2]\nclass = Yes"] ;
524 -> 526 ;
527 [label="gini = 0.0\nsamples = 33\nvalue = [33, 0]\nclass = Yes"] ;
477 -> 527 ;
528 [label="X[0] <= 43.5\ngini = 0.191\nsamples = 337\nvalue = [301, 36]\nclass = Yes"] ;
476 -> 528 ;
529 [label="X[0] <= 41.5\ngini = 0.153\nsamples = 84\nvalue = [77, 7]\nclass = Yes"] ;
528 -> 529 ;
530 [label="X[1] <= 9.5\ngini = 0.133\nsamples = 28\nvalue = [26, 2]\nclass = Yes"] ;
529 -> 530 ;
531 [label="gini = 0.147\nsamples = 25\nvalue = [23, 2]\nclass = Yes"] ;
530 -> 531 ;
532 [label="gini = 0.0\nsamples = 3\nvalue = [3, 0]\nclass = Yes"] ;
530 -> 532 ;
533 [label="X[0] <= 42.5\ngini = 0.163\nsamples = 56\nvalue = [51, 5]\nclass = Yes"] ;
529 -> 533 ;
534 [label="X[1] <= 9.5\ngini = 0.185\nsamples = 29\nvalue = [26, 3]\nclass = Yes"] ;
533 -> 534 ;
535 [label="gini = 0.153\nsamples = 24\nvalue = [22, 2]\nclass = Yes"] ;
534 -> 535 ;
536 [label="gini = 0.32\nsamples = 5\nvalue = [4, 1]\nclass = Yes"] ;
534 -> 536 ;
537 [label="X[1] <= 9.5\ngini = 0.137\nsamples = 27\nvalue = [25, 2]\nclass = Yes"] ;
533 -> 537 ;
538 [label="gini = 0.172\nsamples = 21\nvalue = [19, 2]\nclass = Yes"] ;
537 -> 538 ;
539 [label="gini = 0.0\nsamples = 6\nvalue = [6, 0]\nclass = Yes"] ;
537 -> 539 ;
540 [label="X[0] <= 44.5\ngini = 0.203\nsamples = 253\nvalue = [224, 29]\nclass = Yes"] ;
528 -> 540 ;
541 [label="X[1] <= 9.5\ngini = 0.34\nsamples = 23\nvalue = [18, 5]\nclass = Yes"] ;
540 -> 541 ;
542 [label="gini = 0.388\nsamples = 19\nvalue = [14, 5]\nclass = Yes"] ;
541 -> 542 ;
543 [label="gini = 0.0\nsamples = 4\nvalue = [4, 0]\nclass = Yes"] ;
541 -> 543 ;
544 [label="X[0] <= 45.5\ngini = 0.187\nsamples = 230\nvalue = [206, 24]\nclass = Yes"] ;
540 -> 544 ;
545 [label="X[1] <= 9.5\ngini = 0.071\nsamples = 27\nvalue = [26, 1]\nclass = Yes"] ;
544 -> 545 ;
546 [label="gini = 0.083\nsamples = 23\nvalue = [22, 1]\nclass = Yes"] ;
545 -> 546 ;
547 [label="gini = 0.0\nsamples = 4\nvalue = [4, 0]\nclass = Yes"] ;
545 -> 547 ;
548 [label="X[0] <= 53.5\ngini = 0.201\nsamples = 203\nvalue = [180, 23]\nclass = Yes"] ;
544 -> 548 ;
549 [label="X[0] <= 47.5\ngini = 0.19\nsamples = 169\nvalue = [151, 18]\nclass = Yes"] ;
548 -> 549 ;
550 [label="X[1] <= 9.5\ngini = 0.24\nsamples = 43\nvalue = [37, 6]\nclass = Yes"] ;
549 -> 550 ;
551 [label="X[0] <= 46.5\ngini = 0.266\nsamples = 38\nvalue = [32, 6]\nclass = Yes"] ;
550 -> 551 ;
552 [label="gini = 0.305\nsamples = 16\nvalue = [13, 3]\nclass = Yes"] ;
551 -> 552 ;
553 [label="gini = 0.236\nsamples = 22\nvalue = [19, 3]\nclass = Yes"] ;
551 -> 553 ;
554 [label="gini = 0.0\nsamples = 5\nvalue = [5, 0]\nclass = Yes"] ;
550 -> 554 ;
555 [label="X[1] <= 9.5\ngini = 0.172\nsamples = 126\nvalue = [114, 12]\nclass = Yes"] ;
549 -> 555 ;
556 [label="X[0] <= 52.5\ngini = 0.145\nsamples = 102\nvalue = [94, 8]\nclass = Yes"] ;
555 -> 556 ;
557 [label="X[0] <= 48.5\ngini = 0.174\nsamples = 83\nvalue = [75, 8]\nclass = Yes"] ;
556 -> 557 ;
558 [label="gini = 0.087\nsamples = 22\nvalue = [21, 1]\nclass = Yes"] ;
557 -> 558 ;
559 [label="X[0] <= 49.5\ngini = 0.203\nsamples = 61\nvalue = [54, 7]\nclass = Yes"] ;
557 -> 559 ;
560 [label="gini = 0.278\nsamples = 18\nvalue = [15, 3]\nclass = Yes"] ;
559 -> 560 ;
561 [label="X[0] <= 51.5\ngini = 0.169\nsamples = 43\nvalue = [39, 4]\nclass = Yes"] ;
559 -> 561 ;
562 [label="X[0] <= 50.5\ngini = 0.133\nsamples = 28\nvalue = [26, 2]\nclass = Yes"] ;
561 -> 562 ;
563 [label="gini = 0.133\nsamples = 14\nvalue = [13, 1]\nclass = Yes"] ;
562 -> 563 ;
564 [label="gini = 0.133\nsamples = 14\nvalue = [13, 1]\nclass = Yes"] ;
562 -> 564 ;
565 [label="gini = 0.231\nsamples = 15\nvalue = [13, 2]\nclass = Yes"] ;
561 -> 565 ;
566 [label="gini = 0.0\nsamples = 19\nvalue = [19, 0]\nclass = Yes"] ;
556 -> 566 ;
567 [label="X[0] <= 52.5\ngini = 0.278\nsamples = 24\nvalue = [20, 4]\nclass = Yes"] ;
555 -> 567 ;
568 [label="X[0] <= 48.5\ngini = 0.165\nsamples = 22\nvalue = [20, 2]\nclass = Yes"] ;
567 -> 568 ;
569 [label="gini = 0.375\nsamples = 4\nvalue = [3, 1]\nclass = Yes"] ;
568 -> 569 ;
570 [label="X[0] <= 50.5\ngini = 0.105\nsamples = 18\nvalue = [17, 1]\nclass = Yes"] ;
568 -> 570 ;
571 [label="X[0] <= 49.5\ngini = 0.18\nsamples = 10\nvalue = [9, 1]\nclass = Yes"] ;
570 -> 571 ;
572 [label="gini = 0.0\nsamples = 6\nvalue = [6, 0]\nclass = Yes"] ;
571 -> 572 ;
573 [label="gini = 0.375\nsamples = 4\nvalue = [3, 1]\nclass = Yes"] ;
571 -> 573 ;
574 [label="gini = 0.0\nsamples = 8\nvalue = [8, 0]\nclass = Yes"] ;
570 -> 574 ;
575 [label="gini = 0.0\nsamples = 2\nvalue = [0, 2]\nclass = No"] ;
567 -> 575 ;
576 [label="X[0] <= 55.5\ngini = 0.251\nsamples = 34\nvalue = [29, 5]\nclass = Yes"] ;
548 -> 576 ;
577 [label="X[1] <= 9.5\ngini = 0.298\nsamples = 22\nvalue = [18, 4]\nclass = Yes"] ;
576 -> 577 ;
578 [label="X[0] <= 54.5\ngini = 0.332\nsamples = 19\nvalue = [15, 4]\nclass = Yes"] ;
577 -> 578 ;
579 [label="gini = 0.346\nsamples = 9\nvalue = [7, 2]\nclass = Yes"] ;
578 -> 579 ;
580 [label="gini = 0.32\nsamples = 10\nvalue = [8, 2]\nclass = Yes"] ;
578 -> 580 ;
581 [label="gini = 0.0\nsamples = 3\nvalue = [3, 0]\nclass = Yes"] ;
577 -> 581 ;
582 [label="X[1] <= 9.5\ngini = 0.153\nsamples = 12\nvalue = [11, 1]\nclass = Yes"] ;
576 -> 582 ;
583 [label="gini = 0.0\nsamples = 8\nvalue = [8, 0]\nclass = Yes"] ;
582 -> 583 ;
584 [label="gini = 0.375\nsamples = 4\nvalue = [3, 1]\nclass = Yes"] ;
582 -> 584 ;
585 [label="X[1] <= 8.0\ngini = 0.134\nsamples = 83\nvalue = [77, 6]\nclass = Yes"] ;
461 -> 585 ;
586 [label="X[1] <= 5.5\ngini = 0.185\nsamples = 58\nvalue = [52, 6]\nclass = Yes"] ;
585 -> 586 ;
587 [label="X[0] <= 57.5\ngini = 0.127\nsamples = 44\nvalue = [41, 3]\nclass = Yes"] ;
586 -> 587 ;
588 [label="gini = 0.172\nsamples = 21\nvalue = [19, 2]\nclass = Yes"] ;
587 -> 588 ;
589 [label="gini = 0.083\nsamples = 23\nvalue = [22, 1]\nclass = Yes"] ;
587 -> 589 ;
590 [label="X[0] <= 57.5\ngini = 0.337\nsamples = 14\nvalue = [11, 3]\nclass = Yes"] ;
586 -> 590 ;
591 [label="gini = 0.0\nsamples = 8\nvalue = [8, 0]\nclass = Yes"] ;
590 -> 591 ;
592 [label="X[1] <= 6.5\ngini = 0.5\nsamples = 6\nvalue = [3, 3]\nclass = Yes"] ;
590 -> 592 ;
593 [label="gini = 0.5\nsamples = 4\nvalue = [2, 2]\nclass = Yes"] ;
592 -> 593 ;
594 [label="gini = 0.5\nsamples = 2\nvalue = [1, 1]\nclass = Yes"] ;
592 -> 594 ;
595 [label="gini = 0.0\nsamples = 25\nvalue = [25, 0]\nclass = Yes"] ;
585 -> 595 ;
596 [label="X[0] <= 49.5\ngini = 0.312\nsamples = 31\nvalue = [25, 6]\nclass = Yes"] ;
374 -> 596 ;
597 [label="X[0] <= 38.5\ngini = 0.105\nsamples = 18\nvalue = [17, 1]\nclass = Yes"] ;
596 -> 597 ;
598 [label="X[0] <= 37.5\ngini = 0.245\nsamples = 7\nvalue = [6, 1]\nclass = Yes"] ;
597 -> 598 ;
599 [label="gini = 0.0\nsamples = 6\nvalue = [6, 0]\nclass = Yes"] ;
598 -> 599 ;
600 [label="gini = 0.0\nsamples = 1\nvalue = [0, 1]\nclass = No"] ;
598 -> 600 ;
601 [label="gini = 0.0\nsamples = 11\nvalue = [11, 0]\nclass = Yes"] ;
597 -> 601 ;
602 [label="X[0] <= 51.0\ngini = 0.473\nsamples = 13\nvalue = [8, 5]\nclass = Yes"] ;
596 -> 602 ;
603 [label="gini = 0.0\nsamples = 2\nvalue = [0, 2]\nclass = No"] ;
602 -> 603 ;
604 [label="X[0] <= 52.5\ngini = 0.397\nsamples = 11\nvalue = [8, 3]\nclass = Yes"] ;
602 -> 604 ;
605 [label="gini = 0.0\nsamples = 3\nvalue = [3, 0]\nclass = Yes"] ;
604 -> 605 ;
606 [label="X[0] <= 54.5\ngini = 0.469\nsamples = 8\nvalue = [5, 3]\nclass = Yes"] ;
604 -> 606 ;
607 [label="X[0] <= 53.5\ngini = 0.5\nsamples = 6\nvalue = [3, 3]\nclass = Yes"] ;
606 -> 607 ;
608 [label="gini = 0.5\nsamples = 2\nvalue = [1, 1]\nclass = Yes"] ;
607 -> 608 ;
609 [label="gini = 0.5\nsamples = 4\nvalue = [2, 2]\nclass = Yes"] ;
607 -> 609 ;
610 [label="gini = 0.0\nsamples = 2\nvalue = [2, 0]\nclass = Yes"] ;
606 -> 610 ;
611 [label="X[1] <= 6.5\ngini = 0.325\nsamples = 88\nvalue = [70, 18]\nclass = Yes"] ;
281 -> 611 ;
612 [label="X[1] <= 4.5\ngini = 0.262\nsamples = 71\nvalue = [60, 11]\nclass = Yes"] ;
611 -> 612 ;
613 [label="X[1] <= 3.5\ngini = 0.128\nsamples = 29\nvalue = [27, 2]\nclass = Yes"] ;
612 -> 613 ;
614 [label="gini = 0.0\nsamples = 8\nvalue = [8, 0]\nclass = Yes"] ;
613 -> 614 ;
615 [label="X[0] <= 59.5\ngini = 0.172\nsamples = 21\nvalue = [19, 2]\nclass = Yes"] ;
613 -> 615 ;
616 [label="gini = 0.142\nsamples = 13\nvalue = [12, 1]\nclass = Yes"] ;
615 -> 616 ;
617 [label="gini = 0.219\nsamples = 8\nvalue = [7, 1]\nclass = Yes"] ;
615 -> 617 ;
618 [label="X[0] <= 59.5\ngini = 0.337\nsamples = 42\nvalue = [33, 9]\nclass = Yes"] ;
612 -> 618 ;
619 [label="X[1] <= 5.5\ngini = 0.435\nsamples = 25\nvalue = [17, 8]\nclass = Yes"] ;
618 -> 619 ;
620 [label="gini = 0.455\nsamples = 20\nvalue = [13, 7]\nclass = Yes"] ;
619 -> 620 ;
621 [label="gini = 0.32\nsamples = 5\nvalue = [4, 1]\nclass = Yes"] ;
619 -> 621 ;
622 [label="X[1] <= 5.5\ngini = 0.111\nsamples = 17\nvalue = [16, 1]\nclass = Yes"] ;
618 -> 622 ;
623 [label="gini = 0.0\nsamples = 14\nvalue = [14, 0]\nclass = Yes"] ;
622 -> 623 ;
624 [label="gini = 0.444\nsamples = 3\nvalue = [2, 1]\nclass = Yes"] ;
622 -> 624 ;
625 [label="X[1] <= 9.5\ngini = 0.484\nsamples = 17\nvalue = [10, 7]\nclass = Yes"] ;
611 -> 625 ;
626 [label="X[1] <= 8.0\ngini = 0.486\nsamples = 12\nvalue = [5, 7]\nclass = No"] ;
625 -> 626 ;
627 [label="X[0] <= 59.5\ngini = 0.444\nsamples = 3\nvalue = [2, 1]\nclass = Yes"] ;
626 -> 627 ;
628 [label="gini = 0.0\nsamples = 2\nvalue = [2, 0]\nclass = Yes"] ;
627 -> 628 ;
629 [label="gini = 0.0\nsamples = 1\nvalue = [0, 1]\nclass = No"] ;
627 -> 629 ;
630 [label="X[0] <= 59.5\ngini = 0.444\nsamples = 9\nvalue = [3, 6]\nclass = No"] ;
626 -> 630 ;
631 [label="gini = 0.444\nsamples = 6\nvalue = [2, 4]\nclass = No"] ;
630 -> 631 ;
632 [label="gini = 0.444\nsamples = 3\nvalue = [1, 2]\nclass = No"] ;
630 -> 632 ;
633 [label="gini = 0.0\nsamples = 5\nvalue = [5, 0]\nclass = Yes"] ;
625 -> 633 ;
634 [label="X[0] <= 70.5\ngini = 0.47\nsamples = 127\nvalue = [79, 48]\nclass = Yes"] ;
0 -> 634 [labeldistance=2.5, labelangle=-45, headlabel="False"] ;
635 [label="X[0] <= 69.5\ngini = 0.441\nsamples = 73\nvalue = [49, 24]\nclass = Yes"] ;
634 -> 635 ;
636 [label="X[1] <= 5.5\ngini = 0.463\nsamples = 66\nvalue = [42, 24]\nclass = Yes"] ;
635 -> 636 ;
637 [label="X[1] <= 0.5\ngini = 0.444\nsamples = 60\nvalue = [40, 20]\nclass = Yes"] ;
636 -> 637 ;
638 [label="X[0] <= 63.5\ngini = 0.444\nsamples = 3\nvalue = [1, 2]\nclass = No"] ;
637 -> 638 ;
639 [label="gini = 0.0\nsamples = 2\nvalue = [0, 2]\nclass = No"] ;
638 -> 639 ;
640 [label="gini = 0.0\nsamples = 1\nvalue = [1, 0]\nclass = Yes"] ;
638 -> 640 ;
641 [label="X[0] <= 67.5\ngini = 0.432\nsamples = 57\nvalue = [39, 18]\nclass = Yes"] ;
637 -> 641 ;
642 [label="X[0] <= 64.5\ngini = 0.408\nsamples = 49\nvalue = [35, 14]\nclass = Yes"] ;
641 -> 642 ;
643 [label="X[1] <= 3.5\ngini = 0.451\nsamples = 32\nvalue = [21, 11]\nclass = Yes"] ;
642 -> 643 ;
644 [label="X[1] <= 2.5\ngini = 0.32\nsamples = 5\nvalue = [4, 1]\nclass = Yes"] ;
643 -> 644 ;
645 [label="X[1] <= 1.5\ngini = 0.5\nsamples = 2\nvalue = [1, 1]\nclass = Yes"] ;
644 -> 645 ;
646 [label="gini = 0.0\nsamples = 1\nvalue = [1, 0]\nclass = Yes"] ;
645 -> 646 ;
647 [label="gini = 0.0\nsamples = 1\nvalue = [0, 1]\nclass = No"] ;
645 -> 647 ;
648 [label="gini = 0.0\nsamples = 3\nvalue = [3, 0]\nclass = Yes"] ;
644 -> 648 ;
649 [label="X[1] <= 4.5\ngini = 0.466\nsamples = 27\nvalue = [17, 10]\nclass = Yes"] ;
643 -> 649 ;
650 [label="X[0] <= 63.0\ngini = 0.5\nsamples = 8\nvalue = [4, 4]\nclass = Yes"] ;
649 -> 650 ;
651 [label="X[0] <= 61.5\ngini = 0.49\nsamples = 7\nvalue = [3, 4]\nclass = No"] ;
650 -> 651 ;
652 [label="gini = 0.48\nsamples = 5\nvalue = [2, 3]\nclass = No"] ;
651 -> 652 ;
653 [label="gini = 0.5\nsamples = 2\nvalue = [1, 1]\nclass = Yes"] ;
651 -> 653 ;
654 [label="gini = 0.0\nsamples = 1\nvalue = [1, 0]\nclass = Yes"] ;
650 -> 654 ;
655 [label="X[0] <= 61.5\ngini = 0.432\nsamples = 19\nvalue = [13, 6]\nclass = Yes"] ;
649 -> 655 ;
656 [label="gini = 0.32\nsamples = 5\nvalue = [4, 1]\nclass = Yes"] ;
655 -> 656 ;
657 [label="X[0] <= 62.5\ngini = 0.459\nsamples = 14\nvalue = [9, 5]\nclass = Yes"] ;
655 -> 657 ;
658 [label="gini = 0.5\nsamples = 2\nvalue = [1, 1]\nclass = Yes"] ;
657 -> 658 ;
659 [label="X[0] <= 63.5\ngini = 0.444\nsamples = 12\nvalue = [8, 4]\nclass = Yes"] ;
657 -> 659 ;
660 [label="gini = 0.408\nsamples = 7\nvalue = [5, 2]\nclass = Yes"] ;
659 -> 660 ;
661 [label="gini = 0.48\nsamples = 5\nvalue = [3, 2]\nclass = Yes"] ;
659 -> 661 ;
662 [label="X[1] <= 4.5\ngini = 0.291\nsamples = 17\nvalue = [14, 3]\nclass = Yes"] ;
642 -> 662 ;
663 [label="gini = 0.0\nsamples = 5\nvalue = [5, 0]\nclass = Yes"] ;
662 -> 663 ;
664 [label="X[0] <= 65.5\ngini = 0.375\nsamples = 12\nvalue = [9, 3]\nclass = Yes"] ;
662 -> 664 ;
665 [label="gini = 0.0\nsamples = 3\nvalue = [3, 0]\nclass = Yes"] ;
664 -> 665 ;
666 [label="X[0] <= 66.5\ngini = 0.444\nsamples = 9\nvalue = [6, 3]\nclass = Yes"] ;
664 -> 666 ;
667 [label="gini = 0.48\nsamples = 5\nvalue = [3, 2]\nclass = Yes"] ;
666 -> 667 ;
668 [label="gini = 0.375\nsamples = 4\nvalue = [3, 1]\nclass = Yes"] ;
666 -> 668 ;
669 [label="X[0] <= 68.5\ngini = 0.5\nsamples = 8\nvalue = [4, 4]\nclass = Yes"] ;
641 -> 669 ;
670 [label="gini = 0.0\nsamples = 2\nvalue = [0, 2]\nclass = No"] ;
669 -> 670 ;
671 [label="gini = 0.444\nsamples = 6\nvalue = [4, 2]\nclass = Yes"] ;
669 -> 671 ;
672 [label="X[1] <= 10.0\ngini = 0.444\nsamples = 6\nvalue = [2, 4]\nclass = No"] ;
636 -> 672 ;
673 [label="gini = 0.0\nsamples = 3\nvalue = [0, 3]\nclass = No"] ;
672 -> 673 ;
674 [label="X[0] <= 63.5\ngini = 0.444\nsamples = 3\nvalue = [2, 1]\nclass = Yes"] ;
672 -> 674 ;
675 [label="gini = 0.0\nsamples = 1\nvalue = [1, 0]\nclass = Yes"] ;
674 -> 675 ;
676 [label="gini = 0.5\nsamples = 2\nvalue = [1, 1]\nclass = Yes"] ;
674 -> 676 ;
677 [label="gini = 0.0\nsamples = 7\nvalue = [7, 0]\nclass = Yes"] ;
635 -> 677 ;
678 [label="X[1] <= 2.0\ngini = 0.494\nsamples = 54\nvalue = [30, 24]\nclass = Yes"] ;
634 -> 678 ;
679 [label="gini = 0.0\nsamples = 2\nvalue = [2, 0]\nclass = Yes"] ;
678 -> 679 ;
680 [label="X[1] <= 7.0\ngini = 0.497\nsamples = 52\nvalue = [28, 24]\nclass = Yes"] ;
678 -> 680 ;
681 [label="X[0] <= 71.5\ngini = 0.499\nsamples = 50\nvalue = [26, 24]\nclass = Yes"] ;
680 -> 681 ;
682 [label="gini = 0.375\nsamples = 4\nvalue = [1, 3]\nclass = No"] ;
681 -> 682 ;
683 [label="X[0] <= 86.5\ngini = 0.496\nsamples = 46\nvalue = [25, 21]\nclass = Yes"] ;
681 -> 683 ;
684 [label="X[0] <= 85.0\ngini = 0.494\nsamples = 45\nvalue = [25, 20]\nclass = Yes"] ;
683 -> 684 ;
685 [label="X[0] <= 83.5\ngini = 0.496\nsamples = 44\nvalue = [24, 20]\nclass = Yes"] ;
684 -> 685 ;
686 [label="X[0] <= 75.5\ngini = 0.493\nsamples = 43\nvalue = [24, 19]\nclass = Yes"] ;
685 -> 686 ;
687 [label="X[0] <= 72.5\ngini = 0.498\nsamples = 17\nvalue = [8, 9]\nclass = No"] ;
686 -> 687 ;
688 [label="gini = 0.444\nsamples = 3\nvalue = [2, 1]\nclass = Yes"] ;
687 -> 688 ;
689 [label="X[0] <= 73.5\ngini = 0.49\nsamples = 14\nvalue = [6, 8]\nclass = No"] ;
687 -> 689 ;
690 [label="gini = 0.5\nsamples = 6\nvalue = [3, 3]\nclass = Yes"] ;
689 -> 690 ;
691 [label="X[0] <= 74.5\ngini = 0.469\nsamples = 8\nvalue = [3, 5]\nclass = No"] ;
689 -> 691 ;
692 [label="gini = 0.444\nsamples = 3\nvalue = [1, 2]\nclass = No"] ;
691 -> 692 ;
693 [label="gini = 0.48\nsamples = 5\nvalue = [2, 3]\nclass = No"] ;
691 -> 693 ;
694 [label="X[0] <= 76.5\ngini = 0.473\nsamples = 26\nvalue = [16, 10]\nclass = Yes"] ;
686 -> 694 ;
695 [label="gini = 0.0\nsamples = 2\nvalue = [2, 0]\nclass = Yes"] ;
694 -> 695 ;
696 [label="X[0] <= 79.5\ngini = 0.486\nsamples = 24\nvalue = [14, 10]\nclass = Yes"] ;
694 -> 696 ;
697 [label="X[1] <= 4.0\ngini = 0.497\nsamples = 13\nvalue = [7, 6]\nclass = Yes"] ;
696 -> 697 ;
698 [label="gini = 0.0\nsamples = 1\nvalue = [1, 0]\nclass = Yes"] ;
697 -> 698 ;
699 [label="X[0] <= 77.5\ngini = 0.5\nsamples = 12\nvalue = [6, 6]\nclass = Yes"] ;
697 -> 699 ;
700 [label="gini = 0.5\nsamples = 6\nvalue = [3, 3]\nclass = Yes"] ;
699 -> 700 ;
701 [label="X[0] <= 78.5\ngini = 0.5\nsamples = 6\nvalue = [3, 3]\nclass = Yes"] ;
699 -> 701 ;
702 [label="gini = 0.5\nsamples = 2\nvalue = [1, 1]\nclass = Yes"] ;
701 -> 702 ;
703 [label="gini = 0.5\nsamples = 4\nvalue = [2, 2]\nclass = Yes"] ;
701 -> 703 ;
704 [label="X[1] <= 3.5\ngini = 0.463\nsamples = 11\nvalue = [7, 4]\nclass = Yes"] ;
696 -> 704 ;
705 [label="gini = 0.0\nsamples = 1\nvalue = [0, 1]\nclass = No"] ;
704 -> 705 ;
706 [label="X[0] <= 82.0\ngini = 0.42\nsamples = 10\nvalue = [7, 3]\nclass = Yes"] ;
704 -> 706 ;
707 [label="X[1] <= 4.5\ngini = 0.278\nsamples = 6\nvalue = [5, 1]\nclass = Yes"] ;
706 -> 707 ;
708 [label="gini = 0.0\nsamples = 1\nvalue = [1, 0]\nclass = Yes"] ;
707 -> 708 ;
709 [label="X[0] <= 80.5\ngini = 0.32\nsamples = 5\nvalue = [4, 1]\nclass = Yes"] ;
707 -> 709 ;
710 [label="gini = 0.375\nsamples = 4\nvalue = [3, 1]\nclass = Yes"] ;
709 -> 710 ;
711 [label="gini = 0.0\nsamples = 1\nvalue = [1, 0]\nclass = Yes"] ;
709 -> 711 ;
712 [label="gini = 0.5\nsamples = 4\nvalue = [2, 2]\nclass = Yes"] ;
706 -> 712 ;
713 [label="gini = 0.0\nsamples = 1\nvalue = [0, 1]\nclass = No"] ;
685 -> 713 ;
714 [label="gini = 0.0\nsamples = 1\nvalue = [1, 0]\nclass = Yes"] ;
684 -> 714 ;
715 [label="gini = 0.0\nsamples = 1\nvalue = [0, 1]\nclass = No"] ;
683 -> 715 ;
716 [label="gini = 0.0\nsamples = 2\nvalue = [2, 0]\nclass = Yes"] ;
680 -> 716 ;
}
